<?xml version="1.0"?>
<MethodSetup Method="MLP::MLP">
  <GeneralInfo>
    <Info name="TMVA Release" value="4.2.1 [262657]"/>
    <Info name="ROOT Release" value="6.18/03 [397827]"/>
    <Info name="Creator" value="sftnight"/>
    <Info name="Date" value="Thu Aug 29 03:49:54 2019"/>
    <Info name="Host" value="Linux root-fedora29-2.cern.ch 5.1.6-200.fc29.x86_64 #1 SMP Mon Jun 3 17:20:05 UTC 2019 x86_64 x86_64 x86_64 GNU/Linux"/>
    <Info name="Dir" value="/mnt/build/workspace/root-makedoc-v618/rootspi/rdoc/v618_TMP/notebooks"/>
    <Info name="Training events" value="4000"/>
    <Info name="TrainingTime" value="2.29096301e+01"/>
    <Info name="AnalysisType" value="Multiclass"/>
  </GeneralInfo>
  <Options>
    <Option name="NCycles" modified="Yes">1000</Option>
    <Option name="HiddenLayers" modified="Yes">N+5,5</Option>
    <Option name="NeuronType" modified="Yes">tanh</Option>
    <Option name="RandomSeed" modified="No">1</Option>
    <Option name="EstimatorType" modified="Yes">MSE</Option>
    <Option name="NeuronInputType" modified="No">sum</Option>
    <Option name="V" modified="Yes">False</Option>
    <Option name="VerbosityLevel" modified="No">Default</Option>
    <Option name="VarTransform" modified="No">None</Option>
    <Option name="H" modified="Yes">False</Option>
    <Option name="CreateMVAPdfs" modified="No">False</Option>
    <Option name="IgnoreNegWeightsInTraining" modified="No">False</Option>
    <Option name="TrainingMethod" modified="No">BP</Option>
    <Option name="LearningRate" modified="No">2.000000e-02</Option>
    <Option name="DecayRate" modified="No">1.000000e-02</Option>
    <Option name="TestRate" modified="Yes">5</Option>
    <Option name="EpochMonitoring" modified="No">False</Option>
    <Option name="Sampling" modified="No">1.000000e+00</Option>
    <Option name="SamplingEpoch" modified="No">1.000000e+00</Option>
    <Option name="SamplingImportance" modified="No">1.000000e+00</Option>
    <Option name="SamplingTraining" modified="No">True</Option>
    <Option name="SamplingTesting" modified="No">False</Option>
    <Option name="ResetStep" modified="No">50</Option>
    <Option name="Tau" modified="No">3.000000e+00</Option>
    <Option name="BPMode" modified="No">sequential</Option>
    <Option name="BatchSize" modified="No">-1</Option>
    <Option name="ConvergenceImprove" modified="No">1.000000e-30</Option>
    <Option name="ConvergenceTests" modified="No">-1</Option>
    <Option name="UseRegulator" modified="No">False</Option>
    <Option name="UpdateLimit" modified="No">10000</Option>
    <Option name="CalculateErrors" modified="No">False</Option>
    <Option name="WeightRange" modified="No">1.000000e+00</Option>
  </Options>
  <Variables NVar="4">
    <Variable VarIndex="0" Expression="var1" Label="var1" Title="var1" Unit="" Internal="var1" Type="F" Min="-3.65916014e+00" Max="3.26447582e+00"/>
    <Variable VarIndex="1" Expression="var2" Label="var2" Title="Variable 2" Unit="" Internal="var2" Type="F" Min="-3.68905711e+00" Max="3.78774047e+00"/>
    <Variable VarIndex="2" Expression="var3" Label="var3" Title="Variable 3" Unit="units" Internal="var3" Type="F" Min="-4.57268333e+00" Max="4.56402540e+00"/>
    <Variable VarIndex="3" Expression="var4" Label="var4" Title="Variable 4" Unit="units" Internal="var4" Type="F" Min="-4.84856987e+00" Max="5.04116535e+00"/>
  </Variables>
  <Spectators NSpec="0"/>
  <Classes NClass="4">
    <Class Name="Signal" Index="0"/>
    <Class Name="bg0" Index="1"/>
    <Class Name="bg1" Index="2"/>
    <Class Name="bg2" Index="3"/>
  </Classes>
  <Transformations NTransformations="0"/>
  <MVAPdfs/>
  <Weights>
    <Layout NLayers="4">
      <Layer Index="0" NNeurons="5">
        <Neuron NSynapses="9">
          -1.0665120031876916e+00 2.7838698804352262e+00 1.0139325227921302e-01 2.0694179859283474e-01 -1.7828650169873836e+00 -8.6077761851734957e-01 -8.0872711229334648e-01 2.4780426222157810e+00 -1.1355173554837434e+00 
        </Neuron>
        <Neuron NSynapses="9">
          3.7137892565377792e+00 1.6909635594765204e+00 2.3736650324902731e-01 -7.3602253713919452e-01 -1.4854832241276787e+00 -9.6566396094125351e-01 1.2720123352237427e+00 -6.5197929758348858e-02 4.6053958560548276e+00 
        </Neuron>
        <Neuron NSynapses="9">
          1.4220472936522574e-01 9.7714729739754769e-01 -1.2221290568567602e+00 -1.2335219478473428e-01 -2.0270184199661170e+00 -8.2572775199157202e-03 -2.8028234074749472e+00 -2.5659958302415704e-02 -2.0215575579258457e-01 
        </Neuron>
        <Neuron NSynapses="9">
          -4.4281781505262080e-01 -4.4536829927996573e+00 2.3127654771348546e-01 2.1886466304003918e+00 4.0855288580815969e+00 1.7026097466226182e+00 1.5548647202842503e+00 3.6573624568574453e-01 5.0848831146434514e-01 
        </Neuron>
        <Neuron NSynapses="9">
          -6.8838826871731715e+00 1.0972822690645843e+00 -1.0366090719301835e+00 6.2859179167026002e-01 1.6733138429165884e+00 2.8826734995570913e+00 3.7842364492182559e+00 -1.8820349945074479e+00 -5.3673587146320809e+00 
        </Neuron>
      </Layer>
      <Layer Index="1" NNeurons="10">
        <Neuron NSynapses="5">
          -3.5723579687389884e-01 4.5050624897821842e-02 3.4058816734783343e-01 3.9929498015403748e+00 1.4522892311879779e-01 
        </Neuron>
        <Neuron NSynapses="5">
          2.7939396471347386e+00 2.1573200079514385e-01 2.3033176152918591e-01 1.8523097269793556e-01 -2.0950208088555224e+00 
        </Neuron>
        <Neuron NSynapses="5">
          -1.8943430785410754e-02 -1.0332267436281819e+00 -1.0770865500676488e+00 8.5153999121185750e-02 1.4943449481145557e-01 
        </Neuron>
        <Neuron NSynapses="5">
          -2.7101003351209507e-01 -1.5539036661035868e+00 -6.6979269769473007e-02 -2.8263074954932993e-01 3.4324972710315393e-01 
        </Neuron>
        <Neuron NSynapses="5">
          2.7053212686701240e+00 2.7268185959513630e-01 4.0338893183840548e-02 5.2966277653121097e-01 5.8415423222731688e-01 
        </Neuron>
        <Neuron NSynapses="5">
          6.6921860046493342e-01 -1.2688687650552004e+00 -8.0369583616567142e-01 2.2156655067849438e+00 1.3571762027036742e+00 
        </Neuron>
        <Neuron NSynapses="5">
          2.0930869885757539e-01 -7.3131743231700419e-01 -5.0653260748000728e-01 1.7047480409483653e+00 2.0272958402995891e+00 
        </Neuron>
        <Neuron NSynapses="5">
          1.3485020705131023e-01 8.0722150533745740e-01 5.4127461689341982e-01 -3.1177253985188376e+00 -1.0618368050978627e-01 
        </Neuron>
        <Neuron NSynapses="5">
          1.8926585388764326e-02 -1.6705379016588967e-01 2.1774241905765054e-01 -3.7510531623374952e+00 -3.9329881058164963e-02 
        </Neuron>
        <Neuron NSynapses="5">
          -1.4555288686474224e+00 -2.9335486135422895e-01 1.1155518696359432e+00 -2.4036541583263094e+00 -1.7026124559078177e+00 
        </Neuron>
      </Layer>
      <Layer Index="2" NNeurons="6">
        <Neuron NSynapses="4">
          -1.4794134226070841e+00 1.1117232013361498e+00 -1.0585378943098440e+00 -8.1111365532144242e-01 
        </Neuron>
        <Neuron NSynapses="4">
          -1.5741534346473036e+00 -2.0061728926744054e+00 -1.7339674562899634e+00 2.5407932926788606e+00 
        </Neuron>
        <Neuron NSynapses="4">
          1.2612118449044722e+00 5.2076531975328044e-01 2.3312336457923433e+00 -2.8952728790315363e+00 
        </Neuron>
        <Neuron NSynapses="4">
          6.6272014779828881e-01 5.6442155570272146e-01 1.1686458166333493e+00 -4.6827677626010402e+00 
        </Neuron>
        <Neuron NSynapses="4">
          3.1374417328099624e+00 -4.2890058205528969e-01 -2.7904507813018480e+00 -3.1530426618968715e-01 
        </Neuron>
        <Neuron NSynapses="4">
          5.3916477020928021e-02 -1.9435127403035823e-01 -4.7081838009920474e-01 2.6375673332384966e+00 
        </Neuron>
      </Layer>
      <Layer Index="3" NNeurons="4">
        <Neuron NSynapses="0"/>
        <Neuron NSynapses="0"/>
        <Neuron NSynapses="0"/>
        <Neuron NSynapses="0"/>
      </Layer>
    </Layout>
  </Weights>
</MethodSetup>
