<?xml version="1.0"?>
<MethodSetup Method="DNN::DNN_CPU">
  <GeneralInfo>
    <Info name="TMVA Release" value="4.2.1 [262657]"/>
    <Info name="ROOT Release" value="6.18/03 [397827]"/>
    <Info name="Creator" value="sftnight"/>
    <Info name="Date" value="Thu Aug 29 03:51:41 2019"/>
    <Info name="Host" value="Linux root-fedora29-2.cern.ch 5.1.6-200.fc29.x86_64 #1 SMP Mon Jun 3 17:20:05 UTC 2019 x86_64 x86_64 x86_64 GNU/Linux"/>
    <Info name="Dir" value="/mnt/build/workspace/root-makedoc-v618/rootspi/rdoc/v618_TMP/notebooks"/>
    <Info name="Training events" value="1000"/>
    <Info name="TrainingTime" value="3.74602079e-01"/>
    <Info name="AnalysisType" value="Regression"/>
  </GeneralInfo>
  <Options>
    <Option name="V" modified="Yes">True</Option>
    <Option name="VerbosityLevel" modified="No">Verbose</Option>
    <Option name="VarTransform" modified="Yes">G</Option>
    <Option name="H" modified="Yes">False</Option>
    <Option name="CreateMVAPdfs" modified="No">False</Option>
    <Option name="IgnoreNegWeightsInTraining" modified="No">False</Option>
    <Option name="Layout" modified="Yes">TANH|50,Layout=TANH|50,Layout=TANH|50,LINEAR</Option>
    <Option name="ValidationSize" modified="No">20%</Option>
    <Option name="ErrorStrategy" modified="Yes">SUMOFSQUARES</Option>
    <Option name="WeightInitialization" modified="Yes">XAVIERUNIFORM</Option>
    <Option name="Architecture" modified="Yes">CPU</Option>
    <Option name="TrainingStrategy" modified="Yes">LearningRate=1e-2,Momentum=0.5,Repetitions=1,ConvergenceSteps=20,BatchSize=50,TestRepetitions=10,WeightDecay=0.01,Regularization=NONE,DropConfig=0.2+0.2+0.2+0.,DropRepetitions=2|LearningRate=1e-3,Momentum=0.9,Repetitions=1,ConvergenceSteps=20,BatchSize=50,TestRepetitions=5,WeightDecay=0.01,Regularization=L2,DropConfig=0.1+0.1+0.1,DropRepetitions=1|LearningRate=1e-4,Momentum=0.3,Repetitions=1,ConvergenceSteps=10,BatchSize=50,TestRepetitions=5,WeightDecay=0.01,Regularization=NONE</Option>
  </Options>
  <Variables NVar="2">
    <Variable VarIndex="0" Expression="var1" Label="var1" Title="Variable 1" Unit="units" Internal="var1" Type="F" Min="5.80459833e-03" Max="4.99746370e+00"/>
    <Variable VarIndex="1" Expression="var2" Label="var2" Title="Variable 2" Unit="units" Internal="var2" Type="F" Min="3.21418047e-03" Max="4.99706078e+00"/>
  </Variables>
  <Spectators NSpec="2">
    <Spectator SpecIndex="0" Expression="var1*2" Label="spec1" Title="Spectator 1" Unit="units" Internal="spec1" Type="F" Min="1.16091967e-02" Max="9.99492741e+00"/>
    <Spectator SpecIndex="1" Expression="var1*3" Label="spec2" Title="Spectator 2" Unit="units" Internal="spec2" Type="F" Min="1.74137950e-02" Max="1.49923916e+01"/>
  </Spectators>
  <Classes NClass="1">
    <Class Name="Regression" Index="0"/>
  </Classes>
  <Targets NTrgt="1">
    <Target TargetIndex="0" Expression="fvalue" Label="fvalue" Title="fvalue" Unit="" Internal="fvalue" Type="F" Min="2.09726381e+00" Max="3.91012146e+02"/>
  </Targets>
  <Transformations NTransformations="1">
    <Transform Name="Gauss" FlatOrGauss="Gauss">
      <Selection>
        <Input NInputs="2">
          <Input Type="Variable" Label="var1" Expression="var1"/>
          <Input Type="Variable" Label="var2" Expression="var2"/>
        </Input>
        <Output NOutputs="2">
          <Output Type="Variable" Label="var1" Expression="var1"/>
          <Output Type="Variable" Label="var2" Expression="var2"/>
        </Output>
      </Selection>
      <Variable VarIndex="0">
        <CumulativePDF_cls0>
          <PDF Name="GaussTransform var0 cls0" MinNSmooth="0" MaxNSmooth="0" InterpolMethod="1" KDE_type="0" KDE_iter="1" KDE_border="1" KDE_finefactor="0.0000000000000000e+00">
            <Histogram Name="Cumulative_Var0_cls0_original" NBins="853" XMin="5.7045985013246536e-03" XMax="4.9974637031555176e+00" HasEquidistantBins="0">
              4.22033598e-04 8.86096794e-04 1.38577400e-03 1.91464950e-03 2.45362101e-03 2.98959040e-03 3.52882687e-03 4.07759892e-03 4.64062439e-03 5.22623956e-03 5.82633493e-03 6.41630450e-03 6.98244246e-03 7.53356563e-03 8.08664039e-03 8.65156204e-03 9.22867376e-03 9.81714576e-03 1.04232207e-02 1.10556763e-02 1.17127690e-02 1.23904748e-02 1.30892331e-02 1.37877762e-02 1.44460192e-02 1.50426403e-02 1.55938501e-02 1.61346272e-02 1.66816059e-02 1.72307622e-02 1.77843571e-02 1.83457565e-02 1.89117137e-02 1.94819290e-02 2.00596284e-02 2.06487309e-02 2.12514214e-02 2.18669809e-02 2.24906858e-02 2.31184959e-02 2.37517301e-02 2.43956000e-02 2.50571594e-02 2.57388186e-02 2.64367294e-02 2.71502901e-02 2.78806463e-02 2.86228731e-02 2.93702204e-02 3.01205143e-02 3.08757741e-02 3.16405408e-02 3.24170850e-02 3.32028195e-02 3.39971557e-02 3.48023102e-02 3.56181636e-02 3.64444070e-02 3.72813307e-02 3.81254926e-02 3.89745794e-02 3.98305319e-02 4.06934917e-02 4.15614843e-02 4.24338430e-02 4.33109514e-02 4.41933051e-02 4.50822003e-02 4.59791347e-02 4.68845740e-02 4.77974601e-02 4.87177037e-02 4.96468619e-02 5.05864359e-02 5.15358746e-02 5.24922423e-02 5.34541346e-02 5.44216931e-02 5.53799383e-02 5.63557558e-02 5.74045852e-02 5.84539883e-02 5.93318045e-02 5.99514917e-02 6.03977591e-02 6.08409345e-02 6.13524318e-02 6.18696176e-02 6.23588525e-02 6.28507957e-02 6.33604676e-02 6.38792887e-02 6.43990487e-02 6.49197698e-02 6.54414147e-02 6.59637600e-02 6.64876401e-02 6.70142770e-02 6.75437525e-02 6.80762082e-02 6.86114654e-02 6.91487491e-02 6.96882606e-02 7.02306181e-02 7.07749352e-02 7.13207647e-02 7.18687475e-02 7.24182203e-02 7.29687065e-02 7.35207796e-02 7.40752593e-02 7.46326149e-02 7.51915649e-02 7.57508650e-02 7.63107017e-02 7.68716782e-02 7.74340183e-02 7.79979378e-02 7.85641223e-02 7.91332945e-02 7.97055662e-02 8.02794769e-02 8.08537006e-02 8.14281553e-02 8.20030496e-02 8.25784802e-02 8.31545442e-02 8.37317035e-02 8.43108371e-02 8.48923773e-02 8.54753926e-02 8.60593021e-02 8.66446495e-02 8.72314200e-02 8.78195763e-02 8.84094834e-02 8.90004858e-02 8.95923525e-02 9.01856646e-02 9.07804221e-02 9.13770571e-02 9.19763371e-02 9.25773382e-02 9.31786373e-02 9.37799439e-02 9.43817049e-02 9.49855074e-02 9.55922529e-02 9.62004736e-02 9.68088880e-02 9.74174887e-02 9.80273336e-02 9.86393839e-02 9.92534906e-02 9.98699889e-02 1.00489058e-01 1.01110101e-01 1.01732455e-01 1.02355838e-01 1.02980159e-01 1.03605628e-01 1.04232475e-01 1.04860216e-01 1.05489992e-01 1.06123269e-01 1.06758349e-01 1.07394181e-01 1.08031414e-01 1.08670540e-01 1.09313361e-01 1.09960906e-01 1.10611856e-01 1.11264922e-01 1.11919992e-01 1.12577595e-01 1.13238595e-01 1.13903344e-01 1.14570528e-01 1.15239084e-01 1.15909316e-01 1.16581656e-01 1.17256030e-01 1.17933482e-01 1.18615799e-01 1.19301893e-01 1.19989596e-01 1.20678157e-01 1.21367365e-01 1.22058421e-01 1.22752935e-01 1.23451442e-01 1.24153651e-01 1.24857880e-01 1.25563353e-01 1.26270562e-01 1.26979649e-01 1.27690613e-01 1.28402650e-01 1.29114926e-01 1.29828528e-01 1.30544662e-01 1.31263092e-01 1.31983325e-01 1.32705256e-01 1.33429140e-01 1.34155124e-01 1.34883344e-01 1.35613635e-01 1.36346221e-01 1.37080923e-01 1.37816384e-01 1.38552412e-01 1.39289483e-01 1.40027255e-01 1.40765607e-01 1.41504839e-01 1.42245457e-01 1.42988190e-01 1.43732592e-01 1.44477695e-01 1.45223707e-01 1.45971119e-01 1.46719873e-01 1.47469833e-01 1.48220971e-01 1.48973480e-01 1.49728999e-01 1.50489017e-01 1.51251838e-01 1.52016312e-01 1.52784124e-01 1.53557375e-01 1.54338941e-01 1.55129716e-01 1.55925632e-01 1.56722695e-01 1.57519951e-01 1.58318400e-01 1.59119576e-01 1.59923419e-01 1.60729304e-01 1.61536947e-01 1.62346020e-01 1.63156405e-01 1.63968712e-01 1.64782956e-01 1.65598661e-01 1.66415676e-01 1.67234734e-01 1.68057889e-01 1.68885827e-01 1.69716641e-01 1.70549214e-01 1.71384484e-01 1.72222614e-01 1.73062593e-01 1.73903719e-01 1.74746051e-01 1.75589651e-01 1.76434442e-01 1.77281544e-01 1.78131700e-01 1.78983599e-01 1.79836616e-01 1.80692121e-01 1.81550726e-01 1.82411090e-01 1.83272541e-01 1.84135526e-01 1.85001016e-01 1.85869455e-01 1.86739236e-01 1.87610447e-01 1.88484743e-01 1.89362004e-01 1.90241382e-01 1.91122323e-01 1.92005068e-01 1.92889318e-01 1.93774596e-01 1.94661304e-01 1.95550144e-01 1.96441963e-01 1.97336003e-01 1.98231637e-01 1.99129686e-01 2.00029731e-01 2.00930640e-01 2.01833382e-01 2.02740356e-01 2.03651518e-01 2.04565093e-01 2.05480129e-01 2.06396371e-01 2.07314014e-01 2.08233148e-01 2.09153518e-01 2.10075274e-01 2.10998461e-01 2.11923242e-01 2.12850019e-01 2.13778675e-01 2.14709416e-01 2.15642318e-01 2.16577098e-01 2.17514366e-01 2.18455121e-01 2.19399348e-01 2.20345557e-01 2.21292540e-01 2.22240016e-01 2.23188087e-01 2.24137217e-01 2.25087345e-01 2.26037979e-01 2.26989046e-01 2.27941468e-01 2.28896037e-01 2.29851931e-01 2.30808377e-01 2.31765345e-01 2.32722998e-01 2.33681574e-01 2.34640673e-01 2.35599905e-01 2.36559317e-01 2.37519085e-01 2.38479644e-01 2.39441663e-01 2.40405411e-01 2.41370484e-01 2.42336810e-01 2.43304789e-01 2.44274646e-01 2.45246291e-01 2.46218905e-01 2.47191891e-01 2.48165339e-01 2.49139801e-01 2.50115693e-01 2.51092613e-01 2.52070159e-01 2.53048629e-01 2.54029125e-01 2.55011797e-01 2.55996108e-01 2.56981939e-01 2.57969618e-01 2.58959562e-01 2.59951681e-01 2.60944963e-01 2.61939347e-01 2.62935519e-01 2.63933629e-01 2.64934540e-01 2.65938580e-01 2.66944498e-01 2.67952144e-01 2.68962324e-01 2.69973963e-01 2.70986378e-01 2.72000223e-01 2.73017824e-01 2.74041176e-01 2.75067985e-01 2.76096225e-01 2.77126163e-01 2.78157711e-01 2.79189974e-01 2.80222565e-01 2.81255722e-01 2.82289684e-01 2.83326715e-01 2.84369648e-01 2.85417289e-01 2.86467195e-01 2.87518263e-01 2.88571030e-01 2.89626002e-01 2.90682524e-01 2.91740507e-01 2.92800158e-01 2.93861032e-01 2.94922709e-01 2.95985550e-01 2.97049761e-01 2.98115283e-01 2.99182951e-01 3.00253212e-01 3.01325351e-01 3.02399248e-01 3.03474963e-01 3.04552883e-01 3.05634379e-01 3.06719512e-01 3.07806313e-01 3.08893740e-01 3.09981823e-01 3.11070591e-01 3.12160075e-01 3.13250393e-01 3.14341545e-01 3.15433681e-01 3.16526920e-01 3.17620814e-01 3.18716019e-01 3.19813579e-01 3.20913076e-01 3.22014481e-01 3.23117495e-01 3.24221671e-01 3.25327843e-01 3.26436162e-01 3.27545524e-01 3.28655273e-01 3.29765290e-01 3.30876559e-01 3.31990153e-01 3.33105117e-01 3.34220290e-01 3.35335761e-01 3.36453110e-01 3.37574482e-01 3.38699907e-01 3.39828223e-01 3.40959221e-01 3.42093289e-01 3.43229681e-01 3.44368279e-01 3.45510483e-01 3.46656233e-01 3.47804457e-01 3.48954648e-01 3.50106537e-01 3.51259738e-01 3.52413595e-01 3.53568584e-01 3.54725510e-01 3.55883539e-01 3.57042432e-01 3.58203322e-01 3.59368712e-01 3.60540003e-01 3.61715287e-01 3.62892926e-01 3.64072114e-01 3.65252912e-01 3.66436064e-01 3.67620856e-01 3.68806988e-01 3.69995058e-01 3.71184736e-01 3.72376144e-01 3.73569220e-01 3.74763101e-01 3.75957668e-01 3.77153367e-01 3.78351301e-01 3.79551589e-01 3.80753011e-01 3.81955028e-01 3.83157641e-01 3.84361237e-01 3.85566503e-01 3.86773288e-01 3.87981594e-01 3.89191866e-01 3.90403807e-01 3.91616911e-01 3.92831892e-01 3.94050121e-01 3.95270646e-01 3.96491736e-01 3.97713095e-01 3.98935586e-01 4.00159925e-01 4.01385456e-01 4.02612120e-01 4.03841794e-01 4.05077636e-01 4.06320751e-01 4.07567441e-01 4.08816367e-01 4.10069138e-01 4.11324114e-01 4.12580132e-01 4.13837820e-01 4.15096730e-01 4.16356742e-01 4.17618275e-01 4.18880939e-01 4.20143902e-01 4.21407253e-01 4.22671974e-01 4.23939377e-01 4.25210029e-01 4.26483184e-01 4.27758098e-01 4.29034740e-01 4.30313170e-01 4.31592673e-01 4.32872862e-01 4.34154361e-01 4.35436875e-01 4.36719835e-01 4.38003421e-01 4.39288795e-01 4.40576553e-01 4.41865772e-01 4.43155825e-01 4.44446772e-01 4.45739895e-01 4.47036296e-01 4.48335141e-01 4.49636102e-01 4.50939506e-01 4.52245176e-01 4.53552872e-01 4.54861969e-01 4.56172079e-01 4.57483739e-01 4.58797634e-01 4.60113615e-01 4.61431950e-01 4.62752819e-01 4.64076221e-01 4.65401977e-01 4.66729134e-01 4.68057185e-01 4.69386458e-01 4.70717400e-01 4.72050756e-01 4.73386824e-01 4.74724531e-01 4.76062864e-01 4.77401733e-01 4.78741050e-01 4.80081081e-01 4.81422812e-01 4.82766181e-01 4.84111518e-01 4.85459626e-01 4.86809671e-01 4.88161922e-01 4.89517808e-01 4.90876257e-01 4.92236108e-01 4.93597060e-01 4.94959295e-01 4.96322989e-01 4.97687876e-01 4.99054700e-01 5.00424385e-01 5.01796722e-01 5.03172159e-01 5.04550755e-01 5.05931973e-01 5.07315874e-01 5.08701503e-01 5.10088146e-01 5.11477172e-01 5.12868822e-01 5.14262915e-01 5.15660226e-01 5.17061532e-01 5.18466294e-01 5.19873202e-01 5.21282375e-01 5.22696078e-01 5.24115920e-01 5.25539339e-01 5.26964307e-01 5.28391302e-01 5.29821277e-01 5.31253815e-01 5.32688379e-01 5.34125209e-01 5.35563529e-01 5.37002921e-01 5.38443804e-01 5.39886773e-01 5.41331828e-01 5.42778611e-01 5.44226825e-01 5.45676410e-01 5.47128439e-01 5.48583567e-01 5.50040543e-01 5.51498711e-01 5.52957773e-01 5.54417610e-01 5.55878222e-01 5.57339787e-01 5.58802903e-01 5.60267210e-01 5.61732054e-01 5.63197672e-01 5.64664304e-01 5.66131473e-01 5.67598701e-01 5.69067180e-01 5.70538521e-01 5.72012007e-01 5.73487043e-01 5.74964464e-01 5.76444507e-01 5.77926874e-01 5.79411566e-01 5.80898464e-01 5.82387209e-01 5.83876908e-01 5.85367024e-01 5.86857975e-01 5.88350296e-01 5.89844167e-01 5.91340244e-01 5.92840970e-01 5.94347239e-01 5.95856428e-01 5.97366631e-01 5.98878443e-01 6.00391805e-01 6.01906300e-01 6.03423297e-01 6.04943335e-01 6.06466353e-01 6.07992768e-01 6.09521985e-01 6.11053646e-01 6.12587333e-01 6.14122987e-01 6.15660608e-01 6.17199779e-01 6.18740201e-01 6.20282531e-01 6.21827245e-01 6.23373449e-01 6.24920309e-01 6.26468778e-01 6.28019989e-01 6.29572690e-01 6.31125569e-01 6.32678747e-01 6.34232700e-01 6.35787904e-01 6.37344897e-01 6.38903916e-01 6.40464246e-01 6.42025054e-01 6.43586695e-01 6.45149767e-01 6.46714807e-01 6.48281455e-01 6.49848878e-01 6.51417196e-01 6.52988076e-01 6.54563010e-01 6.56140983e-01 6.57721817e-01 6.59305811e-01 6.60891294e-01 6.62477612e-01 6.64065301e-01 6.65655077e-01 6.67247713e-01 6.68842256e-01 6.70437396e-01 6.72035694e-01 6.73640490e-01 6.75250232e-01 6.76862478e-01 6.78476810e-01 6.80092335e-01 6.81709409e-01 6.83329105e-01 6.84950173e-01 6.86571479e-01 6.88193262e-01 6.89816058e-01 6.91440701e-01 6.93068504e-01 6.94700360e-01 6.96336806e-01 6.97976649e-01 6.99618220e-01 7.01260865e-01 7.02904046e-01 7.04549074e-01 7.06197739e-01 7.07848132e-01 7.09499002e-01 7.11150825e-01 7.12803543e-01 7.14456916e-01 7.16110587e-01 7.17764676e-01 7.19419420e-01 7.21074641e-01 7.22730339e-01 7.24386752e-01 7.26043820e-01 7.27702320e-01 7.29362965e-01 7.31025159e-01 7.32689977e-01 7.34358728e-01 7.36029863e-01 7.37701952e-01 7.39375174e-01 7.41049826e-01 7.42728710e-01 7.44414270e-01 7.46103525e-01 7.47794330e-01 7.49486744e-01 7.51180291e-01 7.52875566e-01 7.54572809e-01 7.56272495e-01 7.57974565e-01 7.59679317e-01 7.61387050e-01 7.63096571e-01 7.64807522e-01 7.66520977e-01 7.68236399e-01 7.69953132e-01 7.71670640e-01 7.73388684e-01 7.75107384e-01 7.76826739e-01 7.78547108e-01 7.80268848e-01 7.81992137e-01 7.83716679e-01 7.85441875e-01 7.87167668e-01 7.88895309e-01 7.90626109e-01 7.92359173e-01 7.94093728e-01 7.95829773e-01 7.97567844e-01 7.99307764e-01 8.01049590e-01 8.02794456e-01 8.04543614e-01 8.06296647e-01 8.08051348e-01 8.09806943e-01 8.11563730e-01 8.13321531e-01 8.15080583e-01 8.16841245e-01 8.18603575e-01 8.20367277e-01 8.22132111e-01 8.23899209e-01 8.25670600e-01 8.27446163e-01 8.29223514e-01 8.31001401e-01 8.32780004e-01 8.34561110e-01 8.36346269e-01 8.38134050e-01 8.39923263e-01 8.41714025e-01 8.43506455e-01 8.45300615e-01 8.47095966e-01 8.48891973e-01 8.50688219e-01 8.52484703e-01 8.54281902e-01 8.56081009e-01 8.57882738e-01 8.59686971e-01 8.61494184e-01 8.63304436e-01 8.65116417e-01 8.66928816e-01 8.68742526e-01 8.70558739e-01 8.72376978e-01 8.74197066e-01 8.76018941e-01 8.77842069e-01 8.79665732e-01 8.81490767e-01 8.83318365e-01 8.85147452e-01 8.86977255e-01 8.88808072e-01 8.90640140e-01 8.92473698e-01 8.94308329e-01 8.96143973e-01 8.97981763e-01 8.99824023e-01 9.01671648e-01 9.03523147e-01 9.05377150e-01 9.07232463e-01 9.09088552e-01 9.10946608e-01 9.12806571e-01 9.14668262e-01 9.16532278e-01 9.18398261e-01 9.20265436e-01 9.22134221e-01 9.24005151e-01 9.25877631e-01 9.27751184e-01 9.29626286e-01 9.31502640e-01 9.33379948e-01 9.35258806e-01 9.37139809e-01 9.39022005e-01 9.40905094e-01 9.42789495e-01 9.44674909e-01 9.46561575e-01 9.48450565e-01 9.50341523e-01 9.52233493e-01 9.54127073e-01 9.56023216e-01 9.57921624e-01 9.59821939e-01 9.61723626e-01 9.63626206e-01 9.65529501e-01 9.67433155e-01 9.69337285e-01 9.71242368e-01 9.73148227e-01 9.75054860e-01 9.76962149e-01 9.78870392e-01 9.80779886e-01 9.82691288e-01 9.84605014e-01 9.86520886e-01 9.88438666e-01 9.90359128e-01 9.92283225e-01 9.94209468e-01 9.96137440e-01 9.98068035e-01 1.00000000e+00 
            </Histogram>
            <HistogramBinning NBins="853">
              5.70459850e-03 5.80459833e-03 1.19188130e-01 1.69692039e-01 2.05078125e-01 2.76842415e-01 3.01216245e-01 3.16582024e-01 3.34227979e-01 3.73733342e-01 3.95921767e-01 4.09650803e-01 4.23395336e-01 4.60889935e-01 4.81261611e-01 4.85226214e-01 4.91184592e-01 5.05402088e-01 5.09884655e-01 5.43181002e-01 5.60524166e-01 5.87565005e-01 6.04524612e-01 6.24976754e-01 6.29472435e-01 6.56008124e-01 6.75640404e-01 6.87815249e-01 6.89740181e-01 6.98021948e-01 7.09420443e-01 7.25000501e-01 7.30823874e-01 7.33160675e-01 7.39948452e-01 7.60914981e-01 7.71760643e-01 7.97040761e-01 8.07444751e-01 8.10458362e-01 8.16091001e-01 8.22975934e-01 8.54326189e-01 8.85381997e-01 8.94403756e-01 9.17632878e-01 9.35377181e-01 9.60953832e-01 9.64790285e-01 9.69080329e-01 9.76122618e-01 9.81889367e-01 1.00150764e+00 1.01560259e+00 1.01828516e+00 1.03690505e+00 1.05529451e+00 1.06040812e+00 1.07620597e+00 1.09002256e+00 1.09305561e+00 1.10517502e+00 1.11313486e+00 1.12099230e+00 1.12570465e+00 1.13196039e+00 1.13779008e+00 1.14543104e+00 1.15567946e+00 1.16907597e+00 1.17906749e+00 1.18288636e+00 1.19965696e+00 1.21183634e+00 1.22979045e+00 1.23106575e+00 1.24109745e+00 1.24843657e+00 1.25465012e+00 1.26229787e+00 1.27063513e+00 1.27573013e+00 1.28491974e+00 1.29654169e+00 1.30380964e+00 1.30574584e+00 1.31326795e+00 1.31775498e+00 1.32158661e+00 1.32919431e+00 1.33736396e+00 1.34113014e+00 1.34193301e+00 1.34635687e+00 1.34735012e+00 1.35073960e+00 1.35143185e+00 1.36377692e+00 1.36684084e+00 1.37774110e+00 1.38304591e+00 1.39039969e+00 1.39196992e+00 1.40449190e+00 1.40724993e+00 1.40952730e+00 1.41738510e+00 1.42058671e+00 1.42121732e+00 1.42730236e+00 1.43088698e+00 1.44260025e+00 1.44527221e+00 1.44551134e+00 1.44737601e+00 1.44971585e+00 1.45493531e+00 1.45627677e+00 1.46416688e+00 1.46929717e+00 1.48157573e+00 1.48388267e+00 1.48446023e+00 1.48515558e+00 1.48614192e+00 1.48823619e+00 1.48888350e+00 1.49215484e+00 1.49633026e+00 1.50504470e+00 1.50787592e+00 1.50872409e+00 1.51333272e+00 1.51821113e+00 1.51855254e+00 1.52764893e+00 1.52802563e+00 1.53001332e+00 1.53401828e+00 1.53814793e+00 1.53977156e+00 1.55023360e+00 1.55416131e+00 1.55435467e+00 1.55465305e+00 1.55470276e+00 1.55909514e+00 1.57141864e+00 1.57289720e+00 1.57293022e+00 1.57343531e+00 1.57425046e+00 1.58502400e+00 1.58549762e+00 1.59513712e+00 1.60003603e+00 1.60711229e+00 1.60849905e+00 1.61221886e+00 1.61408961e+00 1.61628985e+00 1.62207723e+00 1.62304997e+00 1.62462497e+00 1.64054012e+00 1.64159358e+00 1.64175892e+00 1.64991355e+00 1.65095150e+00 1.66178703e+00 1.67593896e+00 1.68295121e+00 1.68812037e+00 1.69282973e+00 1.70015752e+00 1.70754492e+00 1.72046566e+00 1.72570372e+00 1.72747993e+00 1.73277831e+00 1.73775935e+00 1.74433887e+00 1.74624181e+00 1.76551199e+00 1.77373409e+00 1.77786684e+00 1.78010726e+00 1.78180754e+00 1.78337634e+00 1.79780102e+00 1.80349684e+00 1.81973696e+00 1.82024217e+00 1.82391047e+00 1.82896638e+00 1.83223104e+00 1.83828020e+00 1.84114599e+00 1.84130883e+00 1.84249854e+00 1.85432017e+00 1.85579920e+00 1.86463058e+00 1.86524415e+00 1.87360823e+00 1.87453747e+00 1.88465774e+00 1.88653886e+00 1.89399028e+00 1.90098822e+00 1.90133452e+00 1.90167451e+00 1.90625215e+00 1.90739536e+00 1.90758371e+00 1.91198647e+00 1.91224074e+00 1.92162216e+00 1.92445159e+00 1.92651725e+00 1.92654610e+00 1.93376839e+00 1.93382382e+00 1.94032407e+00 1.94050074e+00 1.94740558e+00 1.94876456e+00 1.97033763e+00 1.97229564e+00 1.97633886e+00 1.98446727e+00 1.99946547e+00 2.01721287e+00 2.05039144e+00 2.05771255e+00 2.06069183e+00 2.06072593e+00 2.06226230e+00 2.07279062e+00 2.07823706e+00 2.08459496e+00 2.08740687e+00 2.09298325e+00 2.09298515e+00 2.10161471e+00 2.10496902e+00 2.10959315e+00 2.11226940e+00 2.11572313e+00 2.12718916e+00 2.14333987e+00 2.14905214e+00 2.15098906e+00 2.15921283e+00 2.16834688e+00 2.17162132e+00 2.17491531e+00 2.17696619e+00 2.18314433e+00 2.18382096e+00 2.18961477e+00 2.20157003e+00 2.20386028e+00 2.20444393e+00 2.21019626e+00 2.22241640e+00 2.22434807e+00 2.22651124e+00 2.23143101e+00 2.23538160e+00 2.24855661e+00 2.24868441e+00 2.24916649e+00 2.26289296e+00 2.26686954e+00 2.27494717e+00 2.27503562e+00 2.28218293e+00 2.28631783e+00 2.28656578e+00 2.29247212e+00 2.29460955e+00 2.30593228e+00 2.31120968e+00 2.31182861e+00 2.32287598e+00 2.32671523e+00 2.32916832e+00 2.32940102e+00 2.34544182e+00 2.35677671e+00 2.36177349e+00 2.36578178e+00 2.36839771e+00 2.37210727e+00 2.37651157e+00 2.37949610e+00 2.38198161e+00 2.38817000e+00 2.38832736e+00 2.39792323e+00 2.39905691e+00 2.40628600e+00 2.41231251e+00 2.41600513e+00 2.42327452e+00 2.43160129e+00 2.44299054e+00 2.44623375e+00 2.44792414e+00 2.44972849e+00 2.45044136e+00 2.45380545e+00 2.45714927e+00 2.45771027e+00 2.45886588e+00 2.46053028e+00 2.46986055e+00 2.47132540e+00 2.47254968e+00 2.47434044e+00 2.47479057e+00 2.47954106e+00 2.47957516e+00 2.48023629e+00 2.48048806e+00 2.48140669e+00 2.48347855e+00 2.48691559e+00 2.49220395e+00 2.49503112e+00 2.49719667e+00 2.50308990e+00 2.50632405e+00 2.51360917e+00 2.51456928e+00 2.51557779e+00 2.51632094e+00 2.51864624e+00 2.52372766e+00 2.52573705e+00 2.52761579e+00 2.52782774e+00 2.53559828e+00 2.54049015e+00 2.54523778e+00 2.54828930e+00 2.55361223e+00 2.55883026e+00 2.56591892e+00 2.56794810e+00 2.56827974e+00 2.57718515e+00 2.57753849e+00 2.58756685e+00 2.59572601e+00 2.60062718e+00 2.60132647e+00 2.61448169e+00 2.61544514e+00 2.61639404e+00 2.62152672e+00 2.62517095e+00 2.65142870e+00 2.65469050e+00 2.65785003e+00 2.66270447e+00 2.66773653e+00 2.66898966e+00 2.66906857e+00 2.67136288e+00 2.67340231e+00 2.67557025e+00 2.69948483e+00 2.70839214e+00 2.71480370e+00 2.71732092e+00 2.72060299e+00 2.73025012e+00 2.73061848e+00 2.73569632e+00 2.73951674e+00 2.74389052e+00 2.74429226e+00 2.74778843e+00 2.75229216e+00 2.75437689e+00 2.76043558e+00 2.76924086e+00 2.77137804e+00 2.77695394e+00 2.78111339e+00 2.78646183e+00 2.79543519e+00 2.80951524e+00 2.80966330e+00 2.81217122e+00 2.81267428e+00 2.81505942e+00 2.81642151e+00 2.81884432e+00 2.82125258e+00 2.82276201e+00 2.82754517e+00 2.82811856e+00 2.82916665e+00 2.83988953e+00 2.84128785e+00 2.84742403e+00 2.85270119e+00 2.85286307e+00 2.85966492e+00 2.86683464e+00 2.86807752e+00 2.86907387e+00 2.86982322e+00 2.87035513e+00 2.88125229e+00 2.88271332e+00 2.88314366e+00 2.88316393e+00 2.88568544e+00 2.90008664e+00 2.91038299e+00 2.91688156e+00 2.92309427e+00 2.93192148e+00 2.93946147e+00 2.93968320e+00 2.95406199e+00 2.96223378e+00 2.96856546e+00 2.97357345e+00 2.97799921e+00 2.98210359e+00 2.98309827e+00 2.98375034e+00 2.99385118e+00 2.99403095e+00 2.99603581e+00 3.00133228e+00 3.01044202e+00 3.03339434e+00 3.03758907e+00 3.04502296e+00 3.04863429e+00 3.05028319e+00 3.05946088e+00 3.06306028e+00 3.06342363e+00 3.07346368e+00 3.07379508e+00 3.08023000e+00 3.08501863e+00 3.08632088e+00 3.08860826e+00 3.09074140e+00 3.09699488e+00 3.10573244e+00 3.10614252e+00 3.10864806e+00 3.10895801e+00 3.11180019e+00 3.11589503e+00 3.12182426e+00 3.12194586e+00 3.13126659e+00 3.13147688e+00 3.13627529e+00 3.13695717e+00 3.15042949e+00 3.15611815e+00 3.15615869e+00 3.15774059e+00 3.15871668e+00 3.16767716e+00 3.16862297e+00 3.17061782e+00 3.17957926e+00 3.19135308e+00 3.21979713e+00 3.22283149e+00 3.22310352e+00 3.24405670e+00 3.24475527e+00 3.24691248e+00 3.25191259e+00 3.25472879e+00 3.25586128e+00 3.26194263e+00 3.26473355e+00 3.26513791e+00 3.26580763e+00 3.26972461e+00 3.27555633e+00 3.28770375e+00 3.29126334e+00 3.29703355e+00 3.29864383e+00 3.30657101e+00 3.30788755e+00 3.30789518e+00 3.31409597e+00 3.31562042e+00 3.31755114e+00 3.31772041e+00 3.32262516e+00 3.33176088e+00 3.33306789e+00 3.33645082e+00 3.33772802e+00 3.34188557e+00 3.35501385e+00 3.35698080e+00 3.36347485e+00 3.36983943e+00 3.37549901e+00 3.38107872e+00 3.38489962e+00 3.38623428e+00 3.39038944e+00 3.39709473e+00 3.40231442e+00 3.40713525e+00 3.41624928e+00 3.42009640e+00 3.42964673e+00 3.43119884e+00 3.43335581e+00 3.43691778e+00 3.44104433e+00 3.44671273e+00 3.45553732e+00 3.45892406e+00 3.45972061e+00 3.46145415e+00 3.46264076e+00 3.46295500e+00 3.46879864e+00 3.47411728e+00 3.47495508e+00 3.48803759e+00 3.49030161e+00 3.49252820e+00 3.50889063e+00 3.51121068e+00 3.51712227e+00 3.51755404e+00 3.52213836e+00 3.52544069e+00 3.52990031e+00 3.53097248e+00 3.54422522e+00 3.54666138e+00 3.55595827e+00 3.56697226e+00 3.56788421e+00 3.57958078e+00 3.58247375e+00 3.58451128e+00 3.59107399e+00 3.60141730e+00 3.60168028e+00 3.61544991e+00 3.62154770e+00 3.63548470e+00 3.63583279e+00 3.64396286e+00 3.65017891e+00 3.67707849e+00 3.67831850e+00 3.68458462e+00 3.68650246e+00 3.69688630e+00 3.70473170e+00 3.70599508e+00 3.71668816e+00 3.71812606e+00 3.72133636e+00 3.72414589e+00 3.73043442e+00 3.73607373e+00 3.73999262e+00 3.74511266e+00 3.74757481e+00 3.75331855e+00 3.76567268e+00 3.76610136e+00 3.77073979e+00 3.77190304e+00 3.77420878e+00 3.77637362e+00 3.77714825e+00 3.78286791e+00 3.78603840e+00 3.78692603e+00 3.78841877e+00 3.79285288e+00 3.79310012e+00 3.79325819e+00 3.79377460e+00 3.80462527e+00 3.80946970e+00 3.81057692e+00 3.82012391e+00 3.82636189e+00 3.83184719e+00 3.83928871e+00 3.84306574e+00 3.85082817e+00 3.85139346e+00 3.85255957e+00 3.85400343e+00 3.85815620e+00 3.86279368e+00 3.86555386e+00 3.87807322e+00 3.89802432e+00 3.90267730e+00 3.90305471e+00 3.90862918e+00 3.91370177e+00 3.91421294e+00 3.92193890e+00 3.93263435e+00 3.93548346e+00 3.94905353e+00 3.95250559e+00 3.96092892e+00 3.96501875e+00 3.97013998e+00 3.97545910e+00 3.98028135e+00 3.98121595e+00 3.98682714e+00 3.99488926e+00 3.99815273e+00 3.99909043e+00 4.00039053e+00 4.01383448e+00 4.01419067e+00 4.01531506e+00 4.01531982e+00 4.01771116e+00 4.02135277e+00 4.02375412e+00 4.03200722e+00 4.03387833e+00 4.03514004e+00 4.03736019e+00 4.04028034e+00 4.04700089e+00 4.05118227e+00 4.05251598e+00 4.05455780e+00 4.05784464e+00 4.07641792e+00 4.07994747e+00 4.08607674e+00 4.09771156e+00 4.09897423e+00 4.09902382e+00 4.10638523e+00 4.10639811e+00 4.12058163e+00 4.12244892e+00 4.12400198e+00 4.12544966e+00 4.15170717e+00 4.16147232e+00 4.16506243e+00 4.17585325e+00 4.17726946e+00 4.17907810e+00 4.19043207e+00 4.19123507e+00 4.19161415e+00 4.19238281e+00 4.19561672e+00 4.19932318e+00 4.20829296e+00 4.21839333e+00 4.23098469e+00 4.23975515e+00 4.24279785e+00 4.24728537e+00 4.24815226e+00 4.24825573e+00 4.26685524e+00 4.26700211e+00 4.26728344e+00 4.27062511e+00 4.27310419e+00 4.27433538e+00 4.27532673e+00 4.27575302e+00 4.27872086e+00 4.27873325e+00 4.28071117e+00 4.28235435e+00 4.28419781e+00 4.28557014e+00 4.29671001e+00 4.29767561e+00 4.30251026e+00 4.31739902e+00 4.32138395e+00 4.32262325e+00 4.32584381e+00 4.32992363e+00 4.33339500e+00 4.36592197e+00 4.36621857e+00 4.37134504e+00 4.37663078e+00 4.37696981e+00 4.38363504e+00 4.38746166e+00 4.39423227e+00 4.40159464e+00 4.40468693e+00 4.41726589e+00 4.41966438e+00 4.42057562e+00 4.43175650e+00 4.43396997e+00 4.43878698e+00 4.44041872e+00 4.44080353e+00 4.44381380e+00 4.44423246e+00 4.44776964e+00 4.45061874e+00 4.45624495e+00 4.45852423e+00 4.46123219e+00 4.46144390e+00 4.46475315e+00 4.47808170e+00 4.48048639e+00 4.48548222e+00 4.48705959e+00 4.49454546e+00 4.49832487e+00 4.50284243e+00 4.50995636e+00 4.52211761e+00 4.53434515e+00 4.53663445e+00 4.53760529e+00 4.54187441e+00 4.54464960e+00 4.54581833e+00 4.55276394e+00 4.55606127e+00 4.56134033e+00 4.56235790e+00 4.56678963e+00 4.57969713e+00 4.59427452e+00 4.59508610e+00 4.59708738e+00 4.59762049e+00 4.60191965e+00 4.61882973e+00 4.62202120e+00 4.62582111e+00 4.63003063e+00 4.63327456e+00 4.63955450e+00 4.64165258e+00 4.64369059e+00 4.64375925e+00 4.64465332e+00 4.64517879e+00 4.65133190e+00 4.65796947e+00 4.66545010e+00 4.66995192e+00 4.68263721e+00 4.68449783e+00 4.68556929e+00 4.68588781e+00 4.69814873e+00 4.70033598e+00 4.70547485e+00 4.71102715e+00 4.71379566e+00 4.71449232e+00 4.71506310e+00 4.72713804e+00 4.72882080e+00 4.72882175e+00 4.73440981e+00 4.73460245e+00 4.74317741e+00 4.74318361e+00 4.74712801e+00 4.75115681e+00 4.76339769e+00 4.78218460e+00 4.78493309e+00 4.79387569e+00 4.79597664e+00 4.79634380e+00 4.80365658e+00 4.80980730e+00 4.81034470e+00 4.82071781e+00 4.82312346e+00 4.82737589e+00 4.82882071e+00 4.83708858e+00 4.84078360e+00 4.84099817e+00 4.84904432e+00 4.85114241e+00 4.85303402e+00 4.85613728e+00 4.86382341e+00 4.86583757e+00 4.86590528e+00 4.87446547e+00 4.87478256e+00 4.87767601e+00 4.88442755e+00 4.89065027e+00 4.89142084e+00 4.89403772e+00 4.90458488e+00 4.90710783e+00 4.91440535e+00 4.91605139e+00 4.91887331e+00 4.92060804e+00 4.92172813e+00 4.92180729e+00 4.92573786e+00 4.92736721e+00 4.92886353e+00 4.93152428e+00 4.93219757e+00 4.93761063e+00 4.93988276e+00 4.94949865e+00 4.95100546e+00 4.96055555e+00 4.96072149e+00 4.97869539e+00 4.98010111e+00 4.98184061e+00 4.99415970e+00 4.99483633e+00 4.99746370e+00 
            </HistogramBinning>
          </PDF>
        </CumulativePDF_cls0>
      </Variable>
      <Variable VarIndex="1">
        <CumulativePDF_cls0>
          <PDF Name="GaussTransform var1 cls0" MinNSmooth="0" MaxNSmooth="0" InterpolMethod="1" KDE_type="0" KDE_iter="1" KDE_border="1" KDE_finefactor="0.0000000000000000e+00">
            <Histogram Name="Cumulative_Var1_cls0_original" NBins="802" XMin="3.1141804065555334e-03" XMax="4.9970607757568359e+00" HasEquidistantBins="0">
              0.00000000e+00 1.70172818e-04 6.24720706e-04 1.30194763e-03 2.15135189e-03 3.14378319e-03 4.30394337e-03 5.62874647e-03 7.10241729e-03 8.79416149e-03 1.06202671e-02 1.23350359e-02 1.37537057e-02 1.49313528e-02 1.60414390e-02 1.71515234e-02 1.82689708e-02 1.94029510e-02 2.05479190e-02 2.16946956e-02 2.28414740e-02 2.39882525e-02 2.51285210e-02 2.62557697e-02 2.73765102e-02 2.84006912e-02 2.91895755e-02 2.97848843e-02 3.03320214e-02 3.09564471e-02 3.18809524e-02 3.32130678e-02 3.47233415e-02 3.62373702e-02 3.76334190e-02 3.87223735e-02 3.95797640e-02 4.05292287e-02 4.17552255e-02 4.31165621e-02 4.43295278e-02 4.52275388e-02 4.59628515e-02 4.69400138e-02 4.83988710e-02 5.00940457e-02 5.14947176e-02 5.23737110e-02 5.29839210e-02 5.35601340e-02 5.41748963e-02 5.50116710e-02 5.61665669e-02 5.74414842e-02 5.86827658e-02 5.98972365e-02 6.10963255e-02 6.22895993e-02 6.34818822e-02 6.46741688e-02 6.58094361e-02 6.67989105e-02 6.76815510e-02 6.85866401e-02 6.95590377e-02 7.05582500e-02 7.16069266e-02 7.27545470e-02 7.39516392e-02 7.51487240e-02 7.63250589e-02 7.74598792e-02 7.84631819e-02 7.92211890e-02 7.98712596e-02 8.07225481e-02 8.19182396e-02 8.32955688e-02 8.45523030e-02 8.55441391e-02 8.64079222e-02 8.74234736e-02 8.86958092e-02 9.00585949e-02 9.13793147e-02 9.27263126e-02 9.42076072e-02 9.57709923e-02 9.72249359e-02 9.84725058e-02 9.96100605e-02 1.00815400e-01 1.02230884e-01 1.03871852e-01 1.05597936e-01 1.07196204e-01 1.08585477e-01 1.09866463e-01 1.11109734e-01 1.12334132e-01 1.13491319e-01 1.14514083e-01 1.15453310e-01 1.16359882e-01 1.17250130e-01 1.18140370e-01 1.19030617e-01 1.19995296e-01 1.21108823e-01 1.22317359e-01 1.23567045e-01 1.24876402e-01 1.26356304e-01 1.28090501e-01 1.29960045e-01 1.31730944e-01 1.33297563e-01 1.34771034e-01 1.36244491e-01 1.37717962e-01 1.39279887e-01 1.41023606e-01 1.42807499e-01 1.44339323e-01 1.45491019e-01 1.46481544e-01 1.47677422e-01 1.49246871e-01 1.51033491e-01 1.52682543e-01 1.53976113e-01 1.55032814e-01 1.56056970e-01 1.57102436e-01 1.58343181e-01 1.60032317e-01 1.62001058e-01 1.63772106e-01 1.65156230e-01 1.66371599e-01 1.67586967e-01 1.68858171e-01 1.70241043e-01 1.71679735e-01 1.73118442e-01 1.74557135e-01 1.75927252e-01 1.77160218e-01 1.78324595e-01 1.79488972e-01 1.80556983e-01 1.81361496e-01 1.81915402e-01 1.82418063e-01 1.83118492e-01 1.84151337e-01 1.85485154e-01 1.87059447e-01 1.88709214e-01 1.90159798e-01 1.91323638e-01 1.92378804e-01 1.93453565e-01 1.94538116e-01 1.95641309e-01 1.96848378e-01 1.98207393e-01 1.99633062e-01 2.01058730e-01 2.02484399e-01 2.03910083e-01 2.05351457e-01 2.06824288e-01 2.08343014e-01 2.09922120e-01 2.11531416e-01 2.13140711e-01 2.14750007e-01 2.16239229e-01 2.17488334e-01 2.18617365e-01 2.19724879e-01 2.20789358e-01 2.21832320e-01 2.22875267e-01 2.23918229e-01 2.24961191e-01 2.26033226e-01 2.27048561e-01 2.27978125e-01 2.29030058e-01 2.30211899e-01 2.31401280e-01 2.32590646e-01 2.33780026e-01 2.35014454e-01 2.36338064e-01 2.37707183e-01 2.39097372e-01 2.40527198e-01 2.41967872e-01 2.43361056e-01 2.44689494e-01 2.45987430e-01 2.47277260e-01 2.48608395e-01 2.50041157e-01 2.51578301e-01 2.53203154e-01 2.54854679e-01 2.56430745e-01 2.57868618e-01 2.59209305e-01 2.60562032e-01 2.61975676e-01 2.63416559e-01 2.64857441e-01 2.66261101e-01 2.67590284e-01 2.68882245e-01 2.70174205e-01 2.71427959e-01 2.72605211e-01 2.73774326e-01 2.75003612e-01 2.76262969e-01 2.77522326e-01 2.78878063e-01 2.80428916e-01 2.82081038e-01 2.83735603e-01 2.85384089e-01 2.86998898e-01 2.88559556e-01 2.90100306e-01 2.91687489e-01 2.93342650e-01 2.95025975e-01 2.96709299e-01 2.98392653e-01 2.99952507e-01 3.01265478e-01 3.02454174e-01 3.03641140e-01 3.04827303e-01 3.06026071e-01 3.07252258e-01 3.08465660e-01 3.09556335e-01 3.10466617e-01 3.11277688e-01 3.12114269e-01 3.13024223e-01 3.14028323e-01 3.15269381e-01 3.16825092e-01 3.18535984e-01 3.20227891e-01 3.21729898e-01 3.22900057e-01 3.23847741e-01 3.24840277e-01 3.26031208e-01 3.27425808e-01 3.29051822e-01 3.30889314e-01 3.32710236e-01 3.34172159e-01 3.35117280e-01 3.35757613e-01 3.36503446e-01 3.37587535e-01 3.38893116e-01 3.40242356e-01 3.41535151e-01 3.42634708e-01 3.43470275e-01 3.44174594e-01 3.44988972e-01 3.46005172e-01 3.47224146e-01 3.48726273e-01 3.50433737e-01 3.52088094e-01 3.53534609e-01 3.54825646e-01 3.56077909e-01 3.57330173e-01 3.58640134e-01 3.60161424e-01 3.61962676e-01 3.63885075e-01 3.65666002e-01 3.67190123e-01 3.68591070e-01 3.70105654e-01 3.71853024e-01 3.73670399e-01 3.75234067e-01 3.76455396e-01 3.77554685e-01 3.78670484e-01 3.79789889e-01 3.80888611e-01 3.81945521e-01 3.83000255e-01 3.84129822e-01 3.85351270e-01 3.86608899e-01 3.87866497e-01 3.89053017e-01 3.90097320e-01 3.91070515e-01 3.92028630e-01 3.93032998e-01 3.94199044e-01 3.95460427e-01 3.96606445e-01 3.97560686e-01 3.98448527e-01 3.99366587e-01 4.00302112e-01 4.01402265e-01 4.02824521e-01 4.04406607e-01 4.05988723e-01 4.07494366e-01 4.08832312e-01 4.10066754e-01 4.11311179e-01 4.12597507e-01 4.13841486e-01 4.14898962e-01 4.15755510e-01 4.16554987e-01 4.17489409e-01 4.18613613e-01 4.19804603e-01 4.20960009e-01 4.22059119e-01 4.23225582e-01 4.24653292e-01 4.26329702e-01 4.28056985e-01 4.29571956e-01 4.30744559e-01 4.31734174e-01 4.32698280e-01 4.33653116e-01 4.34635371e-01 4.35681522e-01 4.36754316e-01 4.37782794e-01 4.38744724e-01 4.39673096e-01 4.40589309e-01 4.41583216e-01 4.42767173e-01 4.44132537e-01 4.45625961e-01 4.47172195e-01 4.48718429e-01 4.50162202e-01 4.51401025e-01 4.52537417e-01 4.53576624e-01 4.54421431e-01 4.55259711e-01 4.56279308e-01 4.57389563e-01 4.58499819e-01 4.59610075e-01 4.60725904e-01 4.61916059e-01 4.63269472e-01 4.64828223e-01 4.66587126e-01 4.68463659e-01 4.70377028e-01 4.72280443e-01 4.74132836e-01 4.75928873e-01 4.77657884e-01 4.79304522e-01 4.80914295e-01 4.82452065e-01 4.83842462e-01 4.85116869e-01 4.86305028e-01 4.87450123e-01 4.88595188e-01 4.89736527e-01 4.90870446e-01 4.92000669e-01 4.93130863e-01 4.94329065e-01 4.95682269e-01 4.97111410e-01 4.98407751e-01 4.99464303e-01 5.00415444e-01 5.01539528e-01 5.02980411e-01 5.04562616e-01 5.05942464e-01 5.06998658e-01 5.07918358e-01 5.08838058e-01 5.09792030e-01 5.10814428e-01 5.11871040e-01 5.12927651e-01 5.13984263e-01 5.15022576e-01 5.16024232e-01 5.17007589e-01 5.17990947e-01 5.18999994e-01 5.20111561e-01 5.21379113e-01 5.22775590e-01 5.24328649e-01 5.26093662e-01 5.27934253e-01 5.29586792e-01 5.30953705e-01 5.32163262e-01 5.33330798e-01 5.34486592e-01 5.35642326e-01 5.36809504e-01 5.37998259e-01 5.39196014e-01 5.40407300e-01 5.41652381e-01 5.42921364e-01 5.44195175e-01 5.45468986e-01 5.46657681e-01 5.47641695e-01 5.48479199e-01 5.49346685e-01 5.50320446e-01 5.51474154e-01 5.52948296e-01 5.54641843e-01 5.56240320e-01 5.57629406e-01 5.58963478e-01 5.60348272e-01 5.61753929e-01 5.63120425e-01 5.64408779e-01 5.65658033e-01 5.66907227e-01 5.68156481e-01 5.69405675e-01 5.70654929e-01 5.71890950e-01 5.73083639e-01 5.74229538e-01 5.75358689e-01 5.76466858e-01 5.77533185e-01 5.78578651e-01 5.79624057e-01 5.80669463e-01 5.81623435e-01 5.82354426e-01 5.82943618e-01 5.83652556e-01 5.84591508e-01 5.85630417e-01 5.86650610e-01 5.87633312e-01 5.88594496e-01 5.89550197e-01 5.90503216e-01 5.91456234e-01 5.92558503e-01 5.94001293e-01 5.95644414e-01 5.97158253e-01 5.98381042e-01 5.99408805e-01 6.00455344e-01 6.01585388e-01 6.02855742e-01 6.04396164e-01 6.06088638e-01 6.07781172e-01 6.09497726e-01 6.11262262e-01 6.13050878e-01 6.14839435e-01 6.16627991e-01 6.18367732e-01 6.20022535e-01 6.21547937e-01 6.22819662e-01 6.23862982e-01 6.24851048e-01 6.25945568e-01 6.27200663e-01 6.28554821e-01 6.29980385e-01 6.31453097e-01 6.32933259e-01 6.34413421e-01 6.35893643e-01 6.37373805e-01 6.38788640e-01 6.40072644e-01 6.41291261e-01 6.42509878e-01 6.43728554e-01 6.44909322e-01 6.46005154e-01 6.47044718e-01 6.48074985e-01 6.49105251e-01 6.50151372e-01 6.51229143e-01 6.52322710e-01 6.53416336e-01 6.54509902e-01 6.55606449e-01 6.56838477e-01 6.58395827e-01 6.60186768e-01 6.61887765e-01 6.63349926e-01 6.64680362e-01 6.65963650e-01 6.67168975e-01 6.68231964e-01 6.69157922e-01 6.70025229e-01 6.70909166e-01 6.71839178e-01 6.72805965e-01 6.73806310e-01 6.74821913e-01 6.75834358e-01 6.76845253e-01 6.77856207e-01 6.78867102e-01 6.79762661e-01 6.80418730e-01 6.81009233e-01 6.81884944e-01 6.83219194e-01 6.84843838e-01 6.86413288e-01 6.87769055e-01 6.88913524e-01 6.89835429e-01 6.90641463e-01 6.91438437e-01 6.92288518e-01 6.93254113e-01 6.94301665e-01 6.95527613e-01 6.97093248e-01 6.98881149e-01 7.00593650e-01 7.02075303e-01 7.03418136e-01 7.04818666e-01 7.06385493e-01 7.08037317e-01 7.09610939e-01 7.11037755e-01 7.12383091e-01 7.13759840e-01 7.15210140e-01 7.16710031e-01 7.18321383e-01 7.20120013e-01 7.21962571e-01 7.23553181e-01 7.24740088e-01 7.25728691e-01 7.26895809e-01 7.28371620e-01 7.29954362e-01 7.31437862e-01 7.32815325e-01 7.34105527e-01 7.35285223e-01 7.36436725e-01 7.37642467e-01 7.38974214e-01 7.40522802e-01 7.42138803e-01 7.43478060e-01 7.44416296e-01 7.45160937e-01 7.45904505e-01 7.46720612e-01 7.47628868e-01 7.48752296e-01 7.50302136e-01 7.52132714e-01 7.53777981e-01 7.55011857e-01 7.56051004e-01 7.57137060e-01 7.58307099e-01 7.59512901e-01 7.60788143e-01 7.62223840e-01 7.63753533e-01 7.65208066e-01 7.66500294e-01 7.67693281e-01 7.68925726e-01 7.70266593e-01 7.71668553e-01 7.73063421e-01 7.74354458e-01 7.75468946e-01 7.76486218e-01 7.77493417e-01 7.78500557e-01 7.79576838e-01 7.80791223e-01 7.82074749e-01 7.83358276e-01 7.84641743e-01 7.85925269e-01 7.87208796e-01 7.88380504e-01 7.89328575e-01 7.90164828e-01 7.91001081e-01 7.91827559e-01 7.92791963e-01 7.94134080e-01 7.95766711e-01 7.97350943e-01 7.98601270e-01 7.99394011e-01 7.99854636e-01 8.00337255e-01 8.01205218e-01 8.02450836e-01 8.03774834e-01 8.05063725e-01 8.06352556e-01 8.07671130e-01 8.09053004e-01 8.10459912e-01 8.11849654e-01 8.13231170e-01 8.14597845e-01 8.15895200e-01 8.17090452e-01 8.18264365e-01 8.19566190e-01 8.21086705e-01 8.22748244e-01 8.24312091e-01 8.25633407e-01 8.26806843e-01 8.27970803e-01 8.29229832e-01 8.30641627e-01 8.32135499e-01 8.33593786e-01 8.34975064e-01 8.36277008e-01 8.37488174e-01 8.38654041e-01 8.39819849e-01 8.41109514e-01 8.42711687e-01 8.44558656e-01 8.46371531e-01 8.48017395e-01 8.49484026e-01 8.50694299e-01 8.51724744e-01 8.52836192e-01 8.54168475e-01 8.55634689e-01 8.57073545e-01 8.58426630e-01 8.59721065e-01 8.60881388e-01 8.61806810e-01 8.62588346e-01 8.63422096e-01 8.64560008e-01 8.66142809e-01 8.67946327e-01 8.69549513e-01 8.70791733e-01 8.71770084e-01 8.72512639e-01 8.73180568e-01 8.74133229e-01 8.75479281e-01 8.76986384e-01 8.78493488e-01 8.79989088e-01 8.81461620e-01 8.82922649e-01 8.84383738e-01 8.85844767e-01 8.87290537e-01 8.88705790e-01 8.90105724e-01 8.91505718e-01 8.92905653e-01 8.94260585e-01 8.95513535e-01 8.96712303e-01 8.97969663e-01 8.99324000e-01 9.00803924e-01 9.02499735e-01 9.04384911e-01 9.06312525e-01 9.08104420e-01 9.09547567e-01 9.10568893e-01 9.11352098e-01 9.12184775e-01 9.13190901e-01 9.14276421e-01 9.15361881e-01 9.16398466e-01 9.17278767e-01 9.17977512e-01 9.18612778e-01 9.19330180e-01 9.20199037e-01 9.21213627e-01 9.22392905e-01 9.23761487e-01 9.25221086e-01 9.26591158e-01 9.27700818e-01 9.28512514e-01 9.29242551e-01 9.30239022e-01 9.31618392e-01 9.33172226e-01 9.34745908e-01 9.36391711e-01 9.38156545e-01 9.39918280e-01 9.41445231e-01 9.42667782e-01 9.43702221e-01 9.44540560e-01 9.45172489e-01 9.45812464e-01 9.46775019e-01 9.48152363e-01 9.49701190e-01 9.51250076e-01 9.52752888e-01 9.54163730e-01 9.55528557e-01 9.56893384e-01 9.58258152e-01 9.59607780e-01 9.60926890e-01 9.62311447e-01 9.63875234e-01 9.65511143e-01 9.66968954e-01 9.68146741e-01 9.69175458e-01 9.70255852e-01 9.71521080e-01 9.72940266e-01 9.74400818e-01 9.75861430e-01 9.77321982e-01 9.78839695e-01 9.80477512e-01 9.82138634e-01 9.83617783e-01 9.84857738e-01 9.86000896e-01 9.87134874e-01 9.88168299e-01 9.89006817e-01 9.89760876e-01 9.90675330e-01 9.91867006e-01 9.93199587e-01 9.94407654e-01 9.95370567e-01 9.96215403e-01 9.97097194e-01 9.98046339e-01 9.99023199e-01 1.00000000e+00 
            </Histogram>
            <HistogramBinning NBins="802">
              3.11418041e-03 3.21418047e-03 9.65565443e-03 9.75012779e-03 1.34703517e-02 1.54531002e-02 1.61921978e-02 2.50473619e-02 3.16736102e-02 3.57279181e-02 4.04760242e-02 4.37787175e-02 5.35070896e-02 6.32697344e-02 7.09629059e-02 7.54556060e-02 7.79277086e-02 1.00440979e-01 1.05183125e-01 1.10660195e-01 1.12951100e-01 1.12964511e-01 1.16572082e-01 1.18598342e-01 1.20961666e-01 1.22374594e-01 1.24385059e-01 1.28233731e-01 1.28427446e-01 1.29064918e-01 1.30296946e-01 1.33150816e-01 1.34261250e-01 1.35248899e-01 1.41036510e-01 1.41064823e-01 1.46602094e-01 1.46854520e-01 1.48582160e-01 1.52046680e-01 1.59788430e-01 1.66785121e-01 1.71380043e-01 1.72469318e-01 1.77737474e-01 1.82627439e-01 2.02424228e-01 2.06346512e-01 2.14875638e-01 2.17517614e-01 2.23786235e-01 2.24290788e-01 2.28314102e-01 2.40441859e-01 2.43211687e-01 2.50729322e-01 2.59994566e-01 2.66538262e-01 2.67624855e-01 2.70365477e-01 2.79308259e-01 2.80731320e-01 2.92195380e-01 3.03853452e-01 3.10562849e-01 3.31513286e-01 3.36142480e-01 3.38661969e-01 3.49097550e-01 3.51200998e-01 3.60785425e-01 3.61876786e-01 3.67133021e-01 3.73472273e-01 3.79258096e-01 3.82065773e-01 3.83086801e-01 3.85296047e-01 3.90207469e-01 3.95822823e-01 3.95883620e-01 3.96554172e-01 3.98762524e-01 4.17412817e-01 4.18557823e-01 4.19372022e-01 4.25364971e-01 4.29954827e-01 4.43638265e-01 4.51839268e-01 4.57437038e-01 4.66833413e-01 4.72881198e-01 4.77500260e-01 4.86295521e-01 4.90602851e-01 4.99758124e-01 5.03051281e-01 5.07372916e-01 5.09468019e-01 5.10969162e-01 5.15277088e-01 5.37076592e-01 5.39088547e-01 5.55942655e-01 5.61353862e-01 5.71440458e-01 5.74341118e-01 5.78567684e-01 5.85873127e-01 5.98213077e-01 6.11995757e-01 6.18032515e-01 6.19544983e-01 6.25921488e-01 6.34971559e-01 6.57351613e-01 6.61765933e-01 6.66859150e-01 6.77255392e-01 6.81383610e-01 6.86117113e-01 6.88536465e-01 6.90302551e-01 7.02722371e-01 7.10844994e-01 7.25420117e-01 7.30348229e-01 7.31189847e-01 7.35933483e-01 7.38006830e-01 7.41707981e-01 7.42536783e-01 7.47990906e-01 7.49988854e-01 7.66353011e-01 7.74187744e-01 7.80763328e-01 7.83897340e-01 7.91803896e-01 7.93569982e-01 7.96708763e-01 7.98637569e-01 8.00337791e-01 8.08944404e-01 8.17778409e-01 8.18164349e-01 8.23424757e-01 8.32497180e-01 8.36197436e-01 8.42381418e-01 8.50238502e-01 8.53070021e-01 8.62995684e-01 8.63788426e-01 8.67710710e-01 8.73036683e-01 8.80490541e-01 8.85022283e-01 8.86198282e-01 8.93907547e-01 9.00996327e-01 9.05984938e-01 9.12059247e-01 9.34902132e-01 9.41395760e-01 9.58600342e-01 9.61465240e-01 9.64563787e-01 9.82788503e-01 9.89457965e-01 9.93307233e-01 1.00091243e+00 1.00667024e+00 1.01785159e+00 1.02454638e+00 1.03802061e+00 1.04036570e+00 1.04595125e+00 1.06382370e+00 1.08684719e+00 1.09330952e+00 1.09450758e+00 1.10302544e+00 1.11407757e+00 1.13665700e+00 1.14676142e+00 1.15884638e+00 1.15974402e+00 1.17612362e+00 1.17804766e+00 1.18261397e+00 1.18345356e+00 1.18357086e+00 1.18514776e+00 1.18955874e+00 1.20360017e+00 1.20404220e+00 1.21369302e+00 1.21653938e+00 1.21916437e+00 1.22484946e+00 1.23052812e+00 1.23120666e+00 1.23512292e+00 1.24721766e+00 1.24978662e+00 1.25529289e+00 1.25579000e+00 1.26683855e+00 1.27027965e+00 1.27523005e+00 1.29699206e+00 1.29884458e+00 1.29923046e+00 1.30237639e+00 1.30599356e+00 1.30838871e+00 1.31100869e+00 1.33060932e+00 1.33967018e+00 1.34816551e+00 1.35347700e+00 1.37495697e+00 1.37588358e+00 1.38742626e+00 1.40151262e+00 1.40551448e+00 1.41235590e+00 1.41238832e+00 1.41570985e+00 1.42412186e+00 1.42469168e+00 1.43634737e+00 1.44321465e+00 1.45011306e+00 1.45015776e+00 1.46090508e+00 1.47955537e+00 1.48277783e+00 1.48527837e+00 1.49699509e+00 1.50555074e+00 1.50704622e+00 1.51033020e+00 1.51294172e+00 1.53072262e+00 1.53409147e+00 1.54383159e+00 1.54464865e+00 1.54842472e+00 1.55220008e+00 1.55680323e+00 1.56424665e+00 1.58191264e+00 1.58303618e+00 1.59381771e+00 1.60065770e+00 1.60217857e+00 1.61041379e+00 1.62541568e+00 1.62621439e+00 1.62741208e+00 1.62833333e+00 1.63335705e+00 1.63514256e+00 1.63999581e+00 1.64415896e+00 1.65758729e+00 1.67879677e+00 1.68286586e+00 1.69958055e+00 1.70121789e+00 1.70265019e+00 1.70444226e+00 1.71148324e+00 1.71465063e+00 1.72153354e+00 1.72187543e+00 1.72445631e+00 1.72582984e+00 1.73863864e+00 1.74418664e+00 1.74576163e+00 1.75112963e+00 1.75553417e+00 1.75668335e+00 1.76582217e+00 1.77259445e+00 1.77314544e+00 1.77497208e+00 1.77518487e+00 1.78054190e+00 1.79615521e+00 1.79649353e+00 1.79907262e+00 1.80105662e+00 1.80108690e+00 1.80731559e+00 1.81150258e+00 1.82219362e+00 1.82281756e+00 1.82939553e+00 1.83766389e+00 1.84313416e+00 1.84796810e+00 1.85157514e+00 1.85379326e+00 1.85578966e+00 1.86082006e+00 1.86107039e+00 1.86237454e+00 1.88570237e+00 1.89278066e+00 1.90196276e+00 1.90734172e+00 1.92639351e+00 1.92653894e+00 1.93034911e+00 1.99825108e+00 1.99854791e+00 2.00147510e+00 2.00412035e+00 2.01062417e+00 2.01230049e+00 2.01449752e+00 2.02036810e+00 2.02371335e+00 2.02486730e+00 2.02987480e+00 2.03485918e+00 2.03546739e+00 2.04391742e+00 2.04719496e+00 2.04782748e+00 2.05051279e+00 2.05535221e+00 2.05689621e+00 2.06603265e+00 2.06974030e+00 2.07380247e+00 2.08044624e+00 2.08147669e+00 2.08241916e+00 2.08516073e+00 2.08857417e+00 2.08920527e+00 2.09923553e+00 2.10629439e+00 2.10908985e+00 2.11287260e+00 2.12738276e+00 2.12991810e+00 2.13411140e+00 2.13519716e+00 2.14361954e+00 2.15731668e+00 2.17976594e+00 2.18671131e+00 2.18908286e+00 2.19180107e+00 2.19932604e+00 2.20351195e+00 2.21114206e+00 2.21948433e+00 2.22046375e+00 2.22866678e+00 2.22900963e+00 2.23176336e+00 2.23596573e+00 2.23610663e+00 2.24962735e+00 2.25980806e+00 2.26362109e+00 2.26997733e+00 2.27492809e+00 2.27861857e+00 2.27864718e+00 2.28215694e+00 2.28338385e+00 2.28690434e+00 2.28696442e+00 2.29124522e+00 2.29204631e+00 2.29465771e+00 2.29851508e+00 2.29975510e+00 2.30015731e+00 2.30848098e+00 2.31287980e+00 2.31540918e+00 2.31926346e+00 2.32849002e+00 2.34059310e+00 2.34452295e+00 2.36356497e+00 2.36833596e+00 2.38555312e+00 2.39023900e+00 2.40557575e+00 2.40770531e+00 2.40881538e+00 2.41150951e+00 2.41318965e+00 2.41803360e+00 2.42023087e+00 2.42804885e+00 2.43454075e+00 2.43923759e+00 2.44532108e+00 2.44583607e+00 2.45058680e+00 2.45725012e+00 2.46813059e+00 2.47766399e+00 2.49549723e+00 2.49612713e+00 2.49776268e+00 2.50776267e+00 2.51068163e+00 2.52521372e+00 2.53516388e+00 2.54531288e+00 2.55235553e+00 2.57253456e+00 2.57479525e+00 2.57775831e+00 2.57978940e+00 2.58241296e+00 2.59130287e+00 2.60365868e+00 2.60367060e+00 2.60956526e+00 2.60967278e+00 2.63082695e+00 2.63536644e+00 2.65072489e+00 2.66142035e+00 2.66157770e+00 2.66636229e+00 2.67672396e+00 2.67703533e+00 2.67895651e+00 2.67926407e+00 2.68240547e+00 2.68827868e+00 2.69884443e+00 2.70987034e+00 2.71889496e+00 2.72077608e+00 2.72259426e+00 2.73365712e+00 2.74031973e+00 2.75525904e+00 2.76757693e+00 2.78208494e+00 2.79138207e+00 2.80250812e+00 2.80451989e+00 2.80879593e+00 2.80974030e+00 2.81172872e+00 2.81224823e+00 2.82745552e+00 2.82746029e+00 2.82754469e+00 2.82806182e+00 2.83676267e+00 2.83760309e+00 2.83823037e+00 2.83971024e+00 2.84397364e+00 2.87928247e+00 2.88209629e+00 2.90056849e+00 2.90292621e+00 2.90598726e+00 2.91540623e+00 2.92512178e+00 2.93340707e+00 2.93480659e+00 2.93484831e+00 2.93658042e+00 2.93855047e+00 2.94726944e+00 2.95543647e+00 2.95556998e+00 2.97020316e+00 2.97801304e+00 2.99234605e+00 2.99485660e+00 3.02075291e+00 3.02854037e+00 3.03241229e+00 3.03253293e+00 3.03377366e+00 3.03928590e+00 3.04572487e+00 3.04790974e+00 3.05558443e+00 3.06460381e+00 3.07718945e+00 3.07920671e+00 3.07969093e+00 3.08462429e+00 3.08651638e+00 3.08922505e+00 3.08954954e+00 3.10204864e+00 3.10507822e+00 3.11974907e+00 3.12417793e+00 3.13455391e+00 3.14356303e+00 3.14486861e+00 3.15558910e+00 3.16983914e+00 3.17491555e+00 3.17555904e+00 3.17888880e+00 3.17998409e+00 3.18153262e+00 3.19047904e+00 3.19822097e+00 3.20369673e+00 3.20657969e+00 3.21092510e+00 3.21792006e+00 3.23289156e+00 3.23778963e+00 3.25149322e+00 3.25417495e+00 3.25736713e+00 3.25994396e+00 3.27099991e+00 3.27252722e+00 3.27896118e+00 3.28968883e+00 3.30948114e+00 3.31566763e+00 3.32105350e+00 3.32468963e+00 3.32776928e+00 3.35153055e+00 3.35631251e+00 3.36143494e+00 3.37472653e+00 3.37894893e+00 3.40489507e+00 3.41281986e+00 3.42329764e+00 3.42464352e+00 3.42868590e+00 3.43316412e+00 3.43524218e+00 3.44820786e+00 3.45077991e+00 3.45820713e+00 3.47184229e+00 3.47362614e+00 3.48574376e+00 3.48825788e+00 3.49427080e+00 3.50000644e+00 3.50607300e+00 3.50628805e+00 3.50837612e+00 3.53528285e+00 3.54009819e+00 3.54221606e+00 3.55492330e+00 3.55996394e+00 3.56793380e+00 3.57602215e+00 3.57957458e+00 3.58440304e+00 3.59685850e+00 3.59814453e+00 3.60308123e+00 3.61167145e+00 3.61503077e+00 3.63994956e+00 3.64804769e+00 3.64956975e+00 3.65991974e+00 3.66272330e+00 3.67429113e+00 3.68132114e+00 3.68714905e+00 3.69055963e+00 3.71329784e+00 3.71906042e+00 3.71962357e+00 3.72421789e+00 3.72940660e+00 3.73110580e+00 3.73727322e+00 3.73915935e+00 3.74070859e+00 3.75619841e+00 3.75845766e+00 3.76071167e+00 3.76123905e+00 3.76141548e+00 3.76660872e+00 3.76666832e+00 3.77738094e+00 3.79012680e+00 3.79254460e+00 3.79566288e+00 3.79722023e+00 3.79832697e+00 3.80427647e+00 3.81026316e+00 3.81554651e+00 3.81605268e+00 3.82040691e+00 3.82172489e+00 3.84507942e+00 3.85241795e+00 3.86044312e+00 3.86415672e+00 3.86779881e+00 3.86798501e+00 3.87314820e+00 3.87402177e+00 3.87538338e+00 3.88904953e+00 3.89196682e+00 3.89274383e+00 3.89690852e+00 3.90358210e+00 3.90493536e+00 3.90563703e+00 3.92119145e+00 3.92310476e+00 3.93360972e+00 3.93610239e+00 3.94120955e+00 3.94740152e+00 3.94895101e+00 4.00570917e+00 4.01980925e+00 4.03181648e+00 4.03507757e+00 4.03689289e+00 4.04078960e+00 4.05005884e+00 4.05133343e+00 4.06481218e+00 4.08117342e+00 4.08257914e+00 4.08273077e+00 4.08315134e+00 4.08571243e+00 4.08961391e+00 4.09714174e+00 4.09897375e+00 4.10108614e+00 4.10677814e+00 4.12961674e+00 4.13836384e+00 4.14812040e+00 4.15265274e+00 4.16227531e+00 4.16940403e+00 4.17317438e+00 4.18265486e+00 4.19794512e+00 4.19983864e+00 4.20015335e+00 4.20030880e+00 4.21356344e+00 4.22061300e+00 4.22132206e+00 4.22633314e+00 4.26262522e+00 4.26278067e+00 4.26412630e+00 4.26590824e+00 4.27154732e+00 4.27706099e+00 4.28031206e+00 4.28110409e+00 4.28460979e+00 4.28800821e+00 4.29820108e+00 4.30546379e+00 4.30944061e+00 4.31342030e+00 4.31984043e+00 4.32757568e+00 4.33541489e+00 4.33764410e+00 4.35088444e+00 4.35774136e+00 4.35895729e+00 4.36791229e+00 4.37814426e+00 4.38384819e+00 4.38698339e+00 4.39408493e+00 4.39470768e+00 4.39907503e+00 4.40144157e+00 4.40208817e+00 4.40799618e+00 4.41376734e+00 4.41991949e+00 4.42277479e+00 4.42378473e+00 4.42768002e+00 4.43308687e+00 4.43708086e+00 4.44300032e+00 4.44663000e+00 4.44914293e+00 4.44936514e+00 4.47351122e+00 4.47789240e+00 4.49132729e+00 4.49716377e+00 4.51753044e+00 4.52472973e+00 4.52657413e+00 4.54399443e+00 4.55985260e+00 4.56284428e+00 4.57564735e+00 4.58493519e+00 4.58549261e+00 4.58663177e+00 4.59655094e+00 4.59808397e+00 4.60035563e+00 4.60879469e+00 4.60968208e+00 4.61799574e+00 4.62214661e+00 4.62586451e+00 4.62801027e+00 4.64244652e+00 4.64547157e+00 4.65422583e+00 4.65998888e+00 4.66994381e+00 4.67348909e+00 4.67358780e+00 4.68839836e+00 4.69417620e+00 4.70993567e+00 4.72336388e+00 4.72343302e+00 4.73056269e+00 4.73398876e+00 4.74504709e+00 4.75079584e+00 4.75158167e+00 4.75582647e+00 4.75801277e+00 4.76003933e+00 4.76550674e+00 4.77311373e+00 4.77412748e+00 4.78228664e+00 4.78601122e+00 4.81565380e+00 4.81656265e+00 4.81958055e+00 4.82311392e+00 4.82738066e+00 4.85176992e+00 4.85854244e+00 4.86601543e+00 4.86735773e+00 4.87728834e+00 4.88205051e+00 4.89095068e+00 4.89144707e+00 4.89683056e+00 4.89752865e+00 4.90142107e+00 4.90233135e+00 4.90646553e+00 4.91226673e+00 4.91426945e+00 4.92041016e+00 4.92306137e+00 4.92420769e+00 4.92447424e+00 4.92793608e+00 4.93960333e+00 4.94001961e+00 4.94500256e+00 4.95312929e+00 4.96385622e+00 4.96887589e+00 4.97701740e+00 4.98323488e+00 4.98506498e+00 4.99103975e+00 4.99368858e+00 4.99706078e+00 
            </HistogramBinning>
          </PDF>
        </CumulativePDF_cls0>
      </Variable>
    </Transform>
  </Transformations>
  <MVAPdfs/>
  <Weights InputWidth="2" Depth="4" LossFunction="R" OutputFunction="I">
    <Layer ActivationFunction="3">
      <Weights rows="50" cols="2">
        2.6911527633666992e+01 3.1063243865966797e+01 1.8334033966064453e+01 -3.3957500457763672e+01 1.0870539665222168e+01 2.7240221023559570e+01 -8.6353957653045654e-01 -1.3149662017822266e+00 -1.1573580741882324e+01 7.3682800292968750e+01 -3.5905006408691406e+01 -2.6642787933349609e+01 -6.4599138498306274e-01 -2.8502860665321350e-01 -6.4604628086090088e-01 4.8358684778213501e-01 9.0721054077148438e+00 4.5796276092529297e+01 5.0409778594970703e+01 2.5245567321777344e+01 3.9746242523193359e+01 2.9040452837944031e-01 4.7991832733154297e+01 4.2450244903564453e+01 7.3403201103210449e+00 1.9775724411010742e+00 -1.1353586912155151e+00 1.1295744180679321e+00 -4.1033406257629395e+00 -4.7773017883300781e+01 -2.4646883010864258e+01 8.8009910583496094e+00 4.7498650550842285e+00 -2.1611740589141846e+00 3.0888736724853516e+01 -4.5631294250488281e+01 -2.7365126609802246e+00 -2.7900443077087402e+00 1.0018993377685547e+01 6.1515009403228760e-01 -7.0408477783203125e+01 -5.6771797180175781e+01 1.0914098739624023e+01 1.4583909606933594e+02 6.1061072349548340e+00 -5.1126847267150879e+00 3.9231303334236145e-01 2.1614196896553040e-01 1.8908758163452148e+01 2.1903953552246094e+01 -2.2967107295989990e+00 4.3978714942932129e+00 -7.0275278091430664e+00 -1.9643913269042969e+01 -2.8389427185058594e+01 1.9154661893844604e+00 8.3702109754085541e-02 1.3119709491729736e-01 -1.6714624404907227e+01 -2.5753692626953125e+01 -7.9171419143676758e+00 -1.5934400558471680e+01 -4.5495090484619141e+01 -2.2186519622802734e+01 -3.7337654113769531e+01 -2.1235292434692383e+01 -2.4458768844604492e+01 -1.9575248956680298e+00 -2.7007129669189453e+01 2.1787648200988770e+00 -3.4788661956787109e+01 5.0378899574279785e+00 3.8872413635253906e+01 -4.5552658081054688e+01 -4.4926376342773438e+01 4.3451256752014160e+00 8.0294141769409180e+00 -9.4447469711303711e+00 -4.9971318244934082e+00 -2.2903040051460266e-01 3.8453006744384766e+01 4.7068855285644531e+01 7.9410247802734375e+01 -7.7115650177001953e+00 -2.4701057374477386e-01 5.4860839843750000e+00 -3.8201296329498291e-01 6.2352018356323242e+00 6.2401518821716309e+00 -3.6498878479003906e+01 2.0237327575683594e+01 -5.5470363616943359e+01 -2.4210433959960938e+00 7.6144490242004395e+00 -3.1285776138305664e+01 -2.4329208374023438e+01 -2.2701675415039062e+01 -3.6276557922363281e+01 -6.2281203269958496e-01 -1.4698318243026733e+00 
      </Weights>
      <Biases rows="50" cols="1">
        -2.4432823181152344e+01 -1.7814197540283203e+00 -7.5083436965942383e+00 -1.2479212760925293e+01 6.5576858520507812e+01 -2.8151142120361328e+01 -5.9545454978942871e+00 -7.7125287055969238e+00 9.6066694259643555e+00 -1.0552516937255859e+01 4.3756599426269531e+01 2.9929491043090820e+01 -6.4278221130371094e+01 1.3667275428771973e+01 -4.2480216979980469e+01 -3.8996996879577637e+00 3.1883565902709961e+01 4.4104995727539062e+01 3.2228191375732422e+01 3.3674579620361328e+01 -1.1597685813903809e+00 1.9397349548339844e+02 3.1201101303100586e+01 6.6073646545410156e+00 -1.3145964622497559e+01 -2.8132905960083008e+01 4.0039775848388672e+01 -9.2722148895263672e+00 -5.1633520126342773e+00 1.2150920867919922e+01 -1.6022726058959961e+01 2.2031045913696289e+01 -9.7908849716186523e+00 -2.1618492126464844e+01 -7.3538604736328125e+01 -3.8467895507812500e+01 1.5652513504028320e+01 -2.2936588287353516e+01 3.7884559631347656e+01 -2.7764993667602539e+01 -1.2096901893615723e+01 5.9574932098388672e+01 -3.2374908447265625e+01 2.1905616760253906e+01 9.5265407562255859e+00 3.9657215118408203e+01 -3.1254219055175781e+01 4.6087150573730469e+01 -3.9504035949707031e+01 1.4353688240051270e+01 
      </Biases>
    </Layer>
    <Layer ActivationFunction="3">
      <Weights rows="50" cols="50">
        4.4215030670166016e+00 2.1532640457153320e+00 1.2247622489929199e+01 4.8055354505777359e-02 4.6843796968460083e-01 -2.9773228168487549e+00 -5.1994174718856812e-01 8.3878725767135620e-01 3.0414280891418457e+00 7.5711069107055664e+00 -1.2466119527816772e+00 -2.9903760552406311e-01 4.1595215797424316e+00 -3.9152338504791260e+00 -2.1824710071086884e-01 -6.4770168066024780e-01 9.3002313375473022e-01 -5.0462441444396973e+00 4.1989690065383911e-01 2.0888855457305908e+00 -4.7175154685974121e+00 3.1293489933013916e+00 3.2047438621520996e+00 1.2787554264068604e+00 2.1354870796203613e+00 1.1633253097534180e+00 -8.4976377487182617e+00 1.7191219329833984e-01 8.1659454107284546e-01 -1.6350156784057617e+01 2.2290351390838623e+00 -4.5670742988586426e+00 -4.7479853630065918e+00 -2.9324898719787598e+00 -3.9462273120880127e+00 -2.6645250320434570e+00 -4.9997499585151672e-01 -9.1923551559448242e+00 -4.4196395874023438e+00 -2.3739187717437744e+00 1.2753111839294434e+01 3.2178387641906738e+00 5.6044597625732422e+00 3.1226778030395508e-01 -4.7938904762268066e+00 -7.9093551635742188e+00 1.4521176815032959e+00 -5.3579483032226562e+00 -5.4771037101745605e+00 1.1060690879821777e+00 4.9678759574890137e+00 -2.0383661985397339e-01 -1.2985556125640869e+00 5.5586886405944824e+00 -3.8884363174438477e+00 -8.4568583965301514e-01 3.3548543453216553e+00 5.6589250564575195e+00 3.8270487785339355e+00 1.2246949672698975e+00 7.8586971759796143e-01 3.4597370624542236e+00 -2.0800042152404785e+00 -4.4906868934631348e+00 -3.8559000492095947e+00 5.9404069185256958e-01 -5.5210256576538086e+00 -3.5234122276306152e+00 -1.0186485052108765e+00 6.6410260200500488e+00 -8.8327856063842773e+00 -7.9204673767089844e+00 3.6166462302207947e-01 -2.5573411583900452e-01 -4.4518432617187500e+00 1.2700318336486816e+01 -3.5802917480468750e+00 6.9324102401733398e+00 6.5370316505432129e+00 2.0175197124481201e+00 5.4714975357055664e+00 3.2897436618804932e+00 -9.1622323989868164e+00 8.8683309555053711e+00 1.6640123128890991e+00 3.6306006908416748e+00 2.8956997394561768e+00 -1.4765647649765015e+00 -5.2925209999084473e+00 4.9216332435607910e+00 1.2865110397338867e+01 -7.4886150360107422e+00 9.2979059219360352e+00 -5.8989257812500000e+00 -6.8196487426757812e+00 -8.0468672513961792e-01 1.3914381980895996e+01 -8.8776102066040039e+00 2.1705405414104462e-01 -1.6215976476669312e+00 -4.7924226522445679e-01 1.1211618185043335e+00 -6.1239850521087646e-01 -3.6978223323822021e+00 3.1089386940002441e+00 -4.0847960114479065e-01 -3.3803031444549561e+00 -1.4712212085723877e+00 -1.8328455686569214e+00 -5.4605817794799805e-01 8.2232010364532471e-01 -7.0770525932312012e-01 1.3742786645889282e+00 2.5646741390228271e+00 1.9874536991119385e+00 2.9601457715034485e-01 7.2261947393417358e-01 -8.3174370229244232e-02 -3.7537379264831543e+00 5.6236392259597778e-01 2.8149585723876953e+00 3.5265288352966309e+00 1.6313175857067108e-01 2.9421532154083252e+00 3.0501141548156738e+00 -4.0032296180725098e+00 -2.5643982887268066e+00 -3.8597607612609863e+00 -3.4847543239593506e+00 -1.0358854532241821e+00 1.7925952374935150e-01 -5.8242821693420410e-01 -2.4943735599517822e+00 -3.5376200079917908e-01 1.0298712253570557e+00 1.0760399103164673e+00 -1.0869612693786621e+00 -1.1935305595397949e+00 2.9924376010894775e+00 -1.3459519147872925e+00 -2.9224190711975098e+00 3.4292263984680176e+00 2.0465934276580811e+00 3.0528872013092041e+00 1.0813391208648682e+00 1.6661990880966187e+00 -4.3876070976257324e+00 4.5911616086959839e-01 6.3206309080123901e-01 5.1262812614440918e+00 -7.3701992034912109e+00 1.3158900260925293e+01 2.4137430191040039e+00 7.3548898696899414e+00 -6.3992800712585449e+00 5.8044695854187012e+00 1.0152457237243652e+01 4.4560198783874512e+00 -1.6433372497558594e+01 -1.0654406547546387e+00 -9.1411170959472656e+00 -2.0066976547241211e+01 9.1408767700195312e+00 -1.1864171981811523e+01 1.9090923309326172e+01 1.4985569000244141e+01 -1.5070280075073242e+01 1.1016421318054199e+01 -1.1263641357421875e+01 -1.0957854270935059e+01 2.1698537826538086e+01 -9.8297729492187500e+00 -1.4133326530456543e+01 -6.6358265876770020e+00 3.0374357700347900e+00 9.4052772521972656e+00 3.5383841991424561e+00 1.7028257369995117e+01 9.6922655105590820e+00 1.6298643112182617e+01 -3.4110695123672485e-01 4.1012487411499023e+00 1.0451702117919922e+01 2.0739671707153320e+01 1.1025388717651367e+01 -7.6009613275527954e-01 -7.5751585960388184e+00 1.9086584091186523e+01 -1.3515808105468750e+01 1.0632436752319336e+01 -2.2610757827758789e+01 -9.4110031127929688e+00 1.0088155746459961e+01 -7.2522177696228027e+00 -2.9439964294433594e+00 -1.0866764068603516e+01 8.7576875686645508e+00 -5.3870730400085449e+00 6.0644125938415527e+00 -1.2793702125549316e+01 -2.3077168464660645e+00 -1.2916673719882965e-01 7.5104460716247559e+00 -3.4297904968261719e+00 7.1125607490539551e+00 -7.9504483938217163e-01 -4.8020172119140625e+00 -1.4936178922653198e+00 1.0805615186691284e+00 9.1905069351196289e-01 6.3422198295593262e+00 -2.2773606777191162e+00 -4.3802237510681152e+00 6.7335414886474609e-01 -3.0204880237579346e+00 -2.5489053726196289e+00 7.2445101737976074e+00 6.1046534776687622e-01 -1.2295840978622437e+00 -6.4573016166687012e+00 5.2405285835266113e+00 5.6110963821411133e+00 8.1878004074096680e+00 2.8434500694274902e+00 6.3385014533996582e+00 -5.3842539787292480e+00 3.8530752658843994e+00 -5.2963795661926270e+00 -6.5013618469238281e+00 -4.9039964675903320e+00 9.7566151618957520e-01 -6.2103896141052246e+00 6.1080517768859863e+00 -3.5311779975891113e+00 -3.6769499778747559e+00 -9.3899875879287720e-01 1.3860135078430176e+00 -2.0540077686309814e+00 2.4023456573486328e+00 -7.4377756118774414e+00 -2.1823813915252686e+00 6.7925519943237305e+00 -3.1487253308296204e-01 3.6929001808166504e+00 5.2376036643981934e+00 4.3820753097534180e+00 -3.1676931381225586e+00 1.1488442420959473e+00 1.8639044761657715e+00 1.0932722091674805e+00 1.7652641296386719e+01 -7.7233260869979858e-01 -4.5994443893432617e+00 -2.0118694305419922e+00 1.6673137664794922e+01 -1.2089273452758789e+01 -3.6254069805145264e+00 6.0677971839904785e+00 1.8022716522216797e+01 -8.8767700195312500e+00 -7.2454661130905151e-01 -3.4097347259521484e+00 -5.2472581863403320e+00 1.1984430998563766e-01 3.4982864856719971e+00 1.9506320953369141e+01 -6.1333231925964355e+00 -1.8494174957275391e+01 7.1011838912963867e+00 -2.4562473297119141e+00 2.8076283931732178e+00 1.0152920722961426e+01 -1.6433298110961914e+01 -3.9253673553466797e+00 -2.5585207939147949e+00 7.4946722984313965e+00 -1.4888440370559692e+00 -2.6183515787124634e-01 6.6338295936584473e+00 5.6485486030578613e-01 1.4645224809646606e+00 -5.2737897634506226e-01 1.0816390514373779e+00 4.9386501312255859e+00 5.5986289978027344e+00 1.0015329360961914e+01 -1.2373077869415283e+00 1.3053816795349121e+01 -1.3529495000839233e+00 9.1504831314086914e+00 1.7386745452880859e+01 -3.1578545570373535e+00 8.7301378250122070e+00 -6.8320121765136719e+00 -1.2761006355285645e+01 -1.7390451431274414e+01 -4.0845227241516113e+00 5.6419539451599121e+00 -1.1448128700256348e+01 -3.2410469055175781e+00 7.4954528808593750e+00 -1.1786499023437500e+01 2.8301458358764648e+00 -7.5880498886108398e+00 9.9556550979614258e+00 -1.0955972671508789e+01 -5.1425094604492188e+00 -1.3957650184631348e+01 -2.5765974521636963e+00 -1.6907665252685547e+01 9.9527559280395508e+00 7.1694302558898926e+00 -9.2385721206665039e+00 1.0865389823913574e+01 -1.5308723449707031e+01 -2.3752599716186523e+01 3.1885142326354980e+00 2.4413809776306152e+00 4.9123940467834473e+00 1.7152948379516602e+01 1.2498587608337402e+01 3.1915481090545654e+00 1.0295058250427246e+01 9.1853065490722656e+00 1.3840870857238770e+01 -7.2099838256835938e+00 -8.5588598251342773e+00 -9.9613008499145508e+00 -9.8251619338989258e+00 -8.8102378845214844e+00 -9.2393283843994141e+00 -1.4602045059204102e+01 -7.4799066781997681e-01 -1.0597084045410156e+01 -1.1848447799682617e+01 -7.4767594337463379e+00 -1.4992381095886230e+01 -1.3750906944274902e+01 -5.9990873336791992e+00 -1.3022618293762207e+01 1.0464588403701782e+00 1.7518571853637695e+01 -9.7938737869262695e+00 8.4908304214477539e+00 4.4071090221405029e-01 6.0730614662170410e+00 -3.3390538692474365e+00 -8.3775806427001953e+00 -8.8776998519897461e+00 1.1338808059692383e+01 -9.4354724884033203e+00 1.0112215995788574e+01 -6.3294901847839355e+00 6.4583930969238281e+00 -6.8654227256774902e+00 7.2343215942382812e+00 9.1415815353393555e+00 1.0961497306823730e+01 -6.6931896209716797e+00 -2.6986098289489746e+00 -3.6955068111419678e+00 -1.6335342407226562e+01 -1.2147573471069336e+01 1.5907045602798462e+00 1.5253350257873535e+01 -2.3877246379852295e+00 -2.1046147346496582e+00 1.7092220306396484e+01 -4.7982192039489746e+00 -3.1994113922119141e+00 3.7512447834014893e+00 -4.6605019569396973e+00 -1.2105073928833008e+01 -5.4754228591918945e+00 -1.3462161064147949e+01 1.6713227033615112e+00 3.5857815742492676e+00 4.7873616218566895e+00 4.7765688896179199e+00 1.5937593460083008e+01 2.1218717098236084e+00 2.6843111515045166e+00 9.2735061645507812e+00 1.0946568489074707e+01 -8.7536573410034180e+00 3.1733949184417725e+00 8.0914497375488281e+00 8.2623090744018555e+00 3.7748632431030273e+00 6.0969657897949219e+00 -5.8205904960632324e+00 -1.1327869415283203e+01 -9.1536216735839844e+00 -3.3350822925567627e+00 1.3247539520263672e+01 2.0727294921875000e+01 -5.6635999679565430e-01 2.1264982223510742e+00 1.0112963676452637e+01 -7.0552177429199219e+00 -1.7645871639251709e+00 -2.5945932865142822e+00 2.2150702476501465e+00 4.1010842323303223e+00 -1.9538210630416870e+00 3.6404076218605042e-01 3.2801580429077148e+00 2.3517179489135742e+00 2.7591543197631836e+00 -9.1279917955398560e-01 1.5388462543487549e+00 2.5407938957214355e+00 2.2696413993835449e+00 -3.5936150550842285e+00 -3.5923571586608887e+00 -2.7513194084167480e+00 8.7380200624465942e-01 5.5183446407318115e-01 2.7498896121978760e+00 2.1441352367401123e-01 -2.5811090469360352e+00 4.5921072363853455e-01 -6.1275426298379898e-02 -4.1211743354797363e+00 -2.2312672138214111e+00 2.1796214580535889e+00 1.5107309818267822e+00 1.4748203754425049e+00 4.5890760421752930e+00 3.3524492383003235e-01 1.3824824094772339e+00 8.9599382877349854e-01 -1.2196091413497925e+00 2.6867277622222900e+00 1.4956517219543457e+00 6.5375709533691406e-01 7.1541810035705566e-01 1.1794550716876984e-01 -6.6358786821365356e-01 3.0998232364654541e+00 -6.9395266473293304e-02 -1.9658906459808350e+00 -1.5169731378555298e+00 2.7902308106422424e-01 3.4829300642013550e-01 2.5922935009002686e+00 3.1568653583526611e+00 -3.7542507648468018e+00 3.3592599630355835e-01 -4.8123478889465332e+00 -5.1148905754089355e+00 -5.1546139717102051e+00 7.2146539688110352e+00 7.1156482696533203e+00 -6.4837808609008789e+00 7.1423763036727905e-01 5.4811539649963379e+00 4.4486851692199707e+00 3.4897851943969727e+00 -3.9269749075174332e-02 4.8132648468017578e+00 4.1481218338012695e+00 -3.1236082315444946e-01 -7.1179656982421875e+00 -6.2310070991516113e+00 -4.4718666076660156e+00 4.3910989761352539e+00 6.1773858070373535e+00 4.9650135040283203e+00 -9.8973077535629272e-01 -1.0688264369964600e+00 -1.6157188415527344e+00 -1.3366200923919678e+00 -3.6373412609100342e+00 -4.2253894805908203e+00 5.6402525901794434e+00 4.0587038993835449e+00 4.1099982261657715e+00 7.4393348693847656e+00 2.3351268768310547e+00 2.2587575912475586e+00 4.2429013252258301e+00 1.5698739290237427e+00 5.1187729835510254e+00 2.7453663349151611e+00 -1.4902130365371704e+00 1.1267595291137695e+00 7.9325312376022339e-01 -2.8470492362976074e+00 2.4874231815338135e+00 -3.3543219566345215e+00 -3.4793558120727539e+00 -5.2851858139038086e+00 4.1498770713806152e+00 3.7706077098846436e+00 3.8295180797576904e+00 4.0004119873046875e+00 -5.8526225090026855e+00 1.1852278709411621e+00 -6.0851368904113770e+00 -7.0380349159240723e+00 1.2668352127075195e+00 1.7399758100509644e+00 1.1562866210937500e+01 -6.1687855720520020e+00 3.6598753929138184e+00 6.2270545959472656e+00 1.0869270324707031e+01 -1.0816875696182251e+00 -4.1578302383422852e+00 -1.9974868297576904e+00 2.3313770294189453e+00 -3.0343210697174072e+00 -7.4037322998046875e+00 -2.0743119716644287e+00 -2.4058939516544342e-01 8.0758643150329590e-01 5.4379053115844727e+00 1.3570368289947510e+00 -1.4427369832992554e+00 5.1526099443435669e-01 -4.0973453521728516e+00 -4.0760550498962402e+00 -9.2874040603637695e+00 -9.0445047616958618e-01 1.9501896202564240e-01 5.0197124481201172e+00 7.7057094573974609e+00 1.1411908149719238e+01 1.0891695022583008e+00 4.4361147880554199e+00 5.1930541992187500e+00 4.4824533462524414e+00 6.9019889831542969e+00 7.5279965400695801e+00 1.9948434829711914e+00 4.1210675239562988e+00 4.4516477584838867e+00 -7.2011651992797852e+00 6.8310785293579102e+00 -6.6531796455383301e+00 -1.0504903793334961e+01 -5.0513744354248047e-01 -5.4975587129592896e-01 6.3786780834197998e-01 1.0040738582611084e+00 7.1972856521606445e+00 -6.2577075958251953e+00 4.8858122825622559e+00 -4.6623015403747559e+00 6.2561450004577637e+00 -8.0702829360961914e-01 1.2669256925582886e+00 -1.8461145162582397e+00 4.8550224304199219e+00 -4.6954865455627441e+00 -5.2172303199768066e+00 -4.4099369049072266e+00 1.9309756755828857e+00 2.0118939876556396e+00 -2.5280859470367432e+00 1.0969288349151611e+00 -1.3560609817504883e+00 3.9578974246978760e+00 -1.9279336929321289e-01 3.3545178174972534e-01 2.3437283039093018e+00 -9.3748086690902710e-01 -1.2185683250427246e+00 1.2921910285949707e+00 3.8029046058654785e+00 1.6959401369094849e+00 2.5735981464385986e+00 5.0368032455444336e+00 -5.5396491289138794e-01 -2.7890930175781250e+00 1.5611231327056885e+00 -1.8217889070510864e+00 -5.4510860443115234e+00 -3.6993207931518555e+00 -8.6675089597702026e-01 -1.7478334903717041e+00 -3.4169254302978516e+00 -1.9598803520202637e+00 -2.7926425933837891e+00 -3.0773320198059082e+00 -2.0514817237854004e+00 -1.3916096687316895e+00 2.5687446594238281e+00 -3.5836019515991211e+00 -4.5881858468055725e-01 1.7781487703323364e+00 -2.6205253601074219e+00 2.2090287208557129e+00 -2.4398365020751953e+00 -4.1861047744750977e+00 -3.4943666458129883e+00 1.1744303703308105e+00 3.0343365669250488e-01 4.3125534057617188e+00 -1.9201252460479736e+00 1.0676333904266357e+00 -2.0355921983718872e-01 2.2136111259460449e+00 1.4856715202331543e+00 -2.6661019325256348e+00 -6.6501474380493164e-01 -4.2701830863952637e+00 3.1813895702362061e+00 -1.7839862108230591e+00 1.7842946946620941e-01 3.0676546096801758e+00 -1.2387014389038086e+01 6.1755685806274414e+00 -4.3834414482116699e+00 -8.9815444946289062e+00 2.5291721820831299e+00 1.4196544647216797e+01 -1.1215384304523468e-01 8.8393859863281250e+00 -5.5001029968261719e+00 6.4330296516418457e+00 2.1665806770324707e+00 2.0184874534606934e+00 -1.9812908172607422e+01 -6.3698744773864746e+00 3.2121665477752686e+00 -1.0117302894592285e+01 -2.8998179435729980e+00 3.8564913272857666e+00 -4.0701489448547363e+00 1.0429848670959473e+01 -2.3550515174865723e+00 -6.8008131980895996e+00 -6.0748195648193359e+00 -6.6623234748840332e+00 9.8251008987426758e+00 -6.0774602890014648e+00 5.5126481056213379e+00 -5.1504650115966797e+00 3.2483930587768555e+00 2.7502038478851318e+00 -6.6700553894042969e+00 5.4059356451034546e-01 3.6664411425590515e-01 1.4010107994079590e+01 -1.6625509262084961e+00 1.0794688224792480e+01 -8.1293697357177734e+00 3.7555396556854248e+00 9.3027944564819336e+00 -5.0507370382547379e-02 2.3090164661407471e+00 -1.4547190666198730e+00 1.5496171712875366e+00 -4.6911950111389160e+00 -1.0935609340667725e+00 -4.7212138772010803e-01 -2.3978350684046745e-02 6.2609992027282715e+00 1.4453901052474976e+00 -6.6638278961181641e-01 -2.0173733234405518e+00 2.2600307464599609e+00 -7.4691545963287354e-01 -7.7108383178710938e-01 1.9711756706237793e+00 7.0343732833862305e+00 -2.5745160579681396e+00 8.8666874170303345e-01 -1.2166589498519897e+00 3.0180850625038147e-01 -2.5811717510223389e+00 4.2249693870544434e+00 1.3441477775573730e+01 1.6468520164489746e+00 -7.0218615531921387e+00 2.7285618782043457e+00 2.0715786516666412e-01 -7.6969873905181885e-01 -1.9750444591045380e-01 -6.5439667701721191e+00 -2.0856938362121582e+00 -1.2520914077758789e+00 4.7550768852233887e+00 4.7415035963058472e-01 2.2308843135833740e+00 -5.8650379180908203e+00 -5.3137993812561035e+00 3.8284402340650558e-02 5.7966552674770355e-02 4.1268606185913086e+00 2.1031539440155029e+00 -1.7146906852722168e+00 -3.9941198825836182e+00 -9.6576509475708008e+00 3.5914008617401123e+00 -5.5009675025939941e+00 1.7765460014343262e+00 1.4387526512145996e+00 2.0647336959838867e+01 -1.2304231643676758e+01 1.6807071685791016e+01 -8.7473907470703125e+00 5.3739414215087891e+00 -3.2511119842529297e+00 -3.6934568881988525e+00 -4.5157794952392578e+00 -9.7442636489868164e+00 1.4469639778137207e+01 5.0135931968688965e+00 7.6436114311218262e+00 1.2630031585693359e+01 -7.7291479110717773e+00 -1.8093040466308594e+01 -1.2331536293029785e+01 2.1441957950592041e+00 -7.7314171791076660e+00 -1.7602380514144897e+00 1.7279451370239258e+01 -1.1633309364318848e+01 1.1307220458984375e+00 1.5063296318054199e+01 1.3037296533584595e+00 1.8090526580810547e+01 3.2033970355987549e+00 -1.1306544303894043e+01 -1.5296526908874512e+01 -4.8803596496582031e+00 -2.5026901245117188e+01 -6.8223981857299805e+00 -4.7051076889038086e+00 -1.6358406066894531e+01 -1.3321096420288086e+01 -5.2740507125854492e+00 -7.7034287452697754e+00 -2.0222574234008789e+01 -8.2567758560180664e+00 -5.5911774635314941e+00 -7.1638183593750000e+00 1.8306044340133667e+00 2.6952064037322998e+00 1.9741705656051636e+00 -4.8915991783142090e+00 -1.6330532073974609e+01 -3.5669094324111938e-01 3.7274494171142578e+00 -1.1832527160644531e+01 -8.0307416915893555e+00 1.4053749084472656e+01 4.9582662582397461e+00 5.5555047988891602e+00 -1.4430679321289062e+01 7.9675970077514648e+00 -7.9518871307373047e+00 6.8717756271362305e+00 9.6427774429321289e+00 1.0425277709960938e+01 1.3054221153259277e+01 7.6330900192260742e+00 -1.8444821834564209e+00 1.5906088829040527e+01 1.5171596527099609e+01 -9.1439294815063477e+00 3.2108199596405029e+00 8.4182310104370117e+00 -1.2821126937866211e+01 -3.6156129837036133e+00 9.4014663696289062e+00 -1.0293478012084961e+01 -1.5791501998901367e+01 -3.2056581974029541e+00 2.0796093940734863e+00 -8.9090557098388672e+00 -1.3743961334228516e+01 1.5972198247909546e+00 2.3409366607666016e+00 7.0493001937866211e+00 7.0470280647277832e+00 8.2030382156372070e+00 1.3083329200744629e+01 -4.2069449424743652e+00 -5.7001276016235352e+00 -2.3911256790161133e+00 7.9141449928283691e+00 8.2880220413208008e+00 3.3951787948608398e+00 -8.5843334197998047e+00 -8.5049657821655273e+00 1.1429856300354004e+01 1.1558631896972656e+01 -1.3565703392028809e+01 1.6041034698486328e+01 -1.4712272644042969e+01 -4.1717987060546875e+00 -1.4834933280944824e+01 1.5828266143798828e+01 5.4124388694763184e+00 6.8961220979690552e-01 -1.2139987945556641e+01 1.2123514413833618e+00 4.2440519332885742e+00 9.0361177921295166e-01 -3.0378999710083008e+00 4.2420463562011719e+00 -4.0284538269042969e+00 -5.5663104057312012e+00 -1.5920957326889038e+00 -4.0588922500610352e+00 -2.2032992839813232e+00 -2.2027805447578430e-01 -1.7997115850448608e+00 -2.3305530548095703e+00 1.3879566192626953e+00 2.2581233978271484e+00 5.9316694736480713e-01 3.1710190773010254e+00 -1.6703538894653320e+00 -1.5508548915386200e-01 2.3236603736877441e+00 3.1811859607696533e+00 3.7626590728759766e+00 9.5348560810089111e-01 6.7211360931396484e+00 3.7901813983917236e+00 -1.2183074653148651e-01 1.8896118402481079e+00 -4.1579422354698181e-01 -5.9307718276977539e+00 1.7054243087768555e+00 -1.9339120388031006e+00 -4.2695346474647522e-01 4.3984040617942810e-01 -1.7940315008163452e+00 -5.9862631559371948e-01 1.4285817146301270e+00 2.3015830516815186e+00 -9.1733598709106445e-01 -1.6117740869522095e+00 -3.8240573406219482e+00 -3.2373113632202148e+00 7.5007295608520508e-01 -1.5655994415283203e+00 9.8791575431823730e-01 3.8876075744628906e+00 2.3648005723953247e-01 -2.6491837501525879e+00 8.7275557219982147e-02 2.1298327445983887e+00 1.1815329790115356e+00 -6.3702673912048340e+00 -4.8417668342590332e+00 2.8721351623535156e+00 -4.2966179847717285e+00 -4.5981040000915527e+00 -6.9314885139465332e+00 -3.0041399002075195e+00 -7.5735497474670410e+00 2.6715567111968994e+00 2.5251948833465576e+00 4.5743079185485840e+00 5.0458598136901855e+00 -2.5326600670814514e-01 5.0338878631591797e+00 -6.5803089141845703e+00 -8.0158386230468750e+00 9.9629459381103516e+00 3.4394109249114990e+00 -1.1079127788543701e+00 4.6955122947692871e+00 -1.2041472196578979e+00 5.8787641525268555e+00 3.9634661674499512e+00 7.1664280891418457e+00 2.2144262790679932e+00 4.1490283012390137e+00 4.2217752337455750e-01 -4.6522388458251953e+00 -6.0100188255310059e+00 -9.3066114187240601e-01 -8.3876333236694336e+00 2.3885086178779602e-01 -3.2149152755737305e+00 -3.7451119422912598e+00 -3.9231755733489990e+00 -2.9413301944732666e+00 -1.9284718036651611e+00 -6.2239694595336914e+00 -3.5240325331687927e-01 -4.6278820037841797e+00 -2.5393722057342529e+00 3.5489037036895752e+00 -1.1260717391967773e+01 2.4136211872100830e+00 8.7127742767333984e+00 7.0508986711502075e-02 -6.1834540367126465e+00 -6.6300091743469238e+00 -4.3391385078430176e+00 7.4833626747131348e+00 -4.8560914993286133e+00 7.1733136177062988e+00 -6.0990109443664551e+00 4.4680323600769043e+00 -5.0569953918457031e+00 7.5699963569641113e+00 7.5610442161560059e+00 7.5482978820800781e+00 -9.5465574264526367e+00 -9.3804140090942383e+00 -3.3201100826263428e+00 -1.3872775077819824e+01 -1.9871859550476074e+00 -4.8418684005737305e+00 6.5461258888244629e+00 -1.1065436363220215e+01 -2.9670381546020508e+00 5.9196972846984863e+00 3.9214944839477539e+00 -6.3953590393066406e-01 2.4562304019927979e+00 -4.2579936981201172e+00 -9.0280418395996094e+00 -6.9837722778320312e+00 -1.5828581809997559e+01 -1.0553451776504517e+00 2.3546539306640625e+01 1.1816894531250000e+01 3.1348831653594971e+00 9.5375471115112305e+00 -5.0984411239624023e+00 1.9585811614990234e+01 1.0170079231262207e+01 5.9800195693969727e+00 6.6968050003051758e+00 1.4950930595397949e+01 1.3744883537292480e+01 -7.0630135536193848e+00 4.1647086143493652e+00 2.5480160713195801e+00 -3.6407473087310791e+00 -8.2942714691162109e+00 -5.5293455123901367e+00 -6.0647993087768555e+00 1.2012961387634277e+01 2.3326810836791992e+01 8.6993259191513062e-01 2.7805789947509766e+01 1.3063805580139160e+01 -1.7787470817565918e+00 2.8918750286102295e+00 1.7446771860122681e+00 -3.5177707672119141e+00 -2.1480700969696045e+00 4.1947298049926758e+00 -3.4980375766754150e+00 -1.0446307659149170e+00 -2.6326987743377686e+00 -5.4833803176879883e+00 -3.6204869747161865e+00 2.8040447831153870e-01 -3.8763473033905029e+00 -3.2867592573165894e-01 4.3375210762023926e+00 3.1596641540527344e+00 2.0938796997070312e+00 3.2415854930877686e+00 7.8187942504882812e-01 -2.6957857608795166e+00 1.0254060029983521e+00 1.6043343544006348e+00 8.1397399902343750e+00 -1.8084769248962402e+00 3.8360810279846191e+00 1.4967471361160278e+00 -2.6238625049591064e+00 2.7709786891937256e+00 -8.3076775074005127e-01 -1.7915118932723999e+00 8.8333897292613983e-03 -1.6403864324092865e-01 -1.2473400831222534e+00 -3.5092940330505371e+00 -3.8680810481309891e-02 -4.3704685568809509e-01 1.5840041637420654e-01 -5.8936935663223267e-01 2.9868106842041016e+00 3.0086040496826172e+00 -6.6072130203247070e-01 -4.4223685264587402e+00 3.8398509025573730e+00 -2.9531845450401306e-01 2.9957308769226074e+00 -4.2677897959947586e-02 2.0556304454803467e+00 -4.3462944030761719e+00 2.6192684173583984e+00 -1.6349593400955200e+00 4.9525518417358398e+00 -8.8746935129165649e-02 -3.1883902549743652e+00 7.5788917541503906e+00 1.0846905708312988e+00 3.2816047668457031e+00 -1.2035799026489258e+01 -2.4219839572906494e+00 3.1439957618713379e+00 -9.3850879669189453e+00 1.2952886581420898e+01 7.6356949806213379e+00 1.8587696075439453e+01 1.4602689743041992e+01 -7.7325954437255859e+00 -2.2131155014038086e+01 -8.7630748748779297e+00 3.3563590049743652e+00 -7.3391810059547424e-02 -5.5383610725402832e-01 9.9753112792968750e+00 -3.6199443340301514e+00 -1.4933801889419556e+00 1.2170358657836914e+01 -5.4092234373092651e-01 1.7685166597366333e+00 1.4254460334777832e+00 -9.6117563247680664e+00 -1.0941208839416504e+01 -3.1422445774078369e+00 -2.0615279674530029e+00 -1.0496519088745117e+01 -1.2722479820251465e+01 -4.5549124479293823e-01 -5.1864399909973145e+00 -1.1068515777587891e+01 -1.3701319694519043e+01 7.1381216049194336e+00 -1.0634412765502930e+01 4.8088488578796387e+00 -9.0403709411621094e+00 -6.2841095924377441e+00 4.0954914093017578e+00 1.3705107688903809e+01 7.7386403083801270e-01 4.6034317016601562e+00 -2.2999963760375977e+00 -1.5848375558853149e+00 -2.2988445281982422e+01 -8.0268354415893555e+00 2.0928103923797607e+00 1.9700652360916138e+00 1.7958209991455078e+01 -1.5117664337158203e+01 1.4935665130615234e+01 -1.4911575317382812e+01 1.3198033332824707e+01 1.4272020339965820e+01 1.3672330856323242e+01 1.2541458129882812e+01 -3.9386749267578125e-01 -1.4555407524108887e+01 -1.7010488510131836e+01 -1.5436636924743652e+01 -1.2297986030578613e+01 1.6816686630249023e+01 1.5760617256164551e+01 -1.2795038223266602e+01 1.6152767181396484e+01 1.1874602317810059e+01 -1.7105064392089844e+01 1.8382383346557617e+01 -1.6498191833496094e+01 -1.4894723892211914e+01 -1.2080390930175781e+01 1.5921747207641602e+01 -1.6420812606811523e+01 1.6902847290039062e+01 1.5816300392150879e+01 1.2355076789855957e+01 1.7414752960205078e+01 1.6475742340087891e+01 1.4016952514648438e+01 1.3871548652648926e+01 1.4655151367187500e+01 1.5743962287902832e+01 1.6404632568359375e+01 1.7470258712768555e+01 -1.5144399404525757e+00 -1.6709087371826172e+01 1.2464758872985840e+01 -1.6344823837280273e+01 -1.0325568199157715e+01 1.4494889259338379e+01 1.7990316390991211e+01 1.6544683456420898e+01 1.5347673416137695e+01 1.3712496757507324e+01 1.5059128761291504e+01 1.5580709457397461e+01 1.9200725555419922e+01 -2.7873911857604980e+00 6.9209070205688477e+00 -8.8618068695068359e+00 -2.5435323715209961e+00 -6.8074643611907959e-01 9.2043333053588867e+00 5.6198515892028809e+00 -4.9280605316162109e+00 -1.0870454311370850e+00 3.0246987342834473e+00 6.4051397144794464e-02 -9.6136373281478882e-01 1.1278426170349121e+01 -6.2794284820556641e+00 4.2299494743347168e+00 7.5862059593200684e+00 -6.1922802925109863e+00 6.7191119194030762e+00 -4.9596276283264160e+00 -1.9445415735244751e+00 -5.4637341499328613e+00 -7.6990222930908203e+00 -7.0506405830383301e+00 -1.0185956954956055e+01 -1.1311123371124268e+00 1.1246957778930664e+00 -1.1682155132293701e+00 7.0003724098205566e+00 9.9786987304687500e+00 5.7202954292297363e+00 2.5905058383941650e+00 1.0203049659729004e+01 3.6400673389434814e+00 6.4697151184082031e+00 8.2386837005615234e+00 7.0686068534851074e+00 -1.2264817953109741e+00 1.1066064834594727e+01 9.1462010145187378e-01 3.2426133155822754e+00 2.4044456481933594e+00 -4.8706874847412109e+00 5.5347876548767090e+00 -3.3505647182464600e+00 -4.5301828384399414e+00 -1.1451988220214844e+01 1.0680395126342773e+01 -1.4501225948333740e+00 -8.2696666717529297e+00 -7.2630467414855957e+00 2.5368731021881104e+00 5.3490538597106934e+00 -9.0721979141235352e+00 5.7574043273925781e+00 -5.6300559043884277e+00 4.5955891609191895e+00 3.8473639488220215e+00 4.2381505966186523e+00 -4.3987784385681152e+00 -3.3938401937484741e-01 1.2297742366790771e+00 -9.7417813539505005e-01 -5.9813518524169922e+00 -4.6317043304443359e+00 2.4465639591217041e+00 5.8272862434387207e+00 -1.0457481384277344e+01 4.1613225936889648e+00 1.4999727010726929e+00 -1.3313372611999512e+01 -3.6839380860328674e-01 -1.1095987558364868e+00 -4.3147044181823730e+00 -4.0594029426574707e+00 -9.6709690093994141e+00 1.6254445314407349e+00 -8.1190252304077148e+00 6.1699738502502441e+00 9.9683666229248047e+00 5.0408587455749512e+00 3.2430834770202637e+00 9.2839231491088867e+00 6.9877344369888306e-01 8.8805198669433594e+00 2.5473980903625488e+00 2.7118208408355713e+00 9.9130821228027344e+00 5.8860964775085449e+00 6.8909960985183716e-01 1.0572898864746094e+01 -7.1790117025375366e-01 -1.0759224891662598e+00 -1.3105704784393311e+00 -6.5153203010559082e+00 8.1783008575439453e+00 1.6052150726318359e+01 1.8950167894363403e+00 5.1673831939697266e+00 1.4399556159973145e+01 -6.8577704429626465e+00 2.2121212005615234e+01 -2.4805051803588867e+01 -1.3987862586975098e+01 1.2181890487670898e+01 -2.3255472183227539e+00 6.4278537034988403e-01 6.7415493726730347e-01 5.0732431411743164e+00 3.1745080947875977e+00 -7.8517184257507324e+00 -4.4492115974426270e+00 -1.8783807754516602e+01 2.9023632049560547e+01 -7.3924641609191895e+00 3.5589089393615723e+00 1.7545143127441406e+01 -9.1380319595336914e+00 -2.4867301940917969e+01 -5.3497117757797241e-01 -8.9198293685913086e+00 -1.9257558584213257e+00 -1.8089511871337891e+01 -1.9923587799072266e+01 3.9269754290580750e-01 2.4108213424682617e+01 2.4264736175537109e+01 -1.1330888748168945e+01 2.1649932861328125e+01 4.0880904197692871e+00 1.3292865753173828e+01 8.7820348739624023e+00 2.3455467224121094e+01 8.1674518585205078e+00 1.7423063278198242e+01 -1.9086846113204956e+00 1.1090269088745117e+01 2.3947629928588867e+00 1.6092945098876953e+01 -2.2378835678100586e+01 7.0771083831787109e+00 2.6220779418945312e+00 -1.9335575103759766e+00 7.9872150421142578e+00 -7.1538472175598145e+00 -1.5858714103698730e+01 -2.9303276062011719e+01 7.8847761154174805e+00 -2.1178337097167969e+01 -2.1810698509216309e-01 -6.0370397567749023e+00 -4.2073864936828613e+00 -1.9873243570327759e+00 6.3129038810729980e+00 -2.2851972281932831e-01 -4.0333361625671387e+00 -7.6047582626342773e+00 -2.1001856327056885e+00 -1.6909512281417847e+00 -3.1732864379882812e+00 -6.7237434387207031e+00 6.0451259613037109e+00 1.6142346858978271e+00 -4.3913831710815430e+00 1.3675003051757812e+00 -3.3675768375396729e+00 -4.9687132835388184e+00 4.9393916130065918e+00 1.9546283483505249e+00 -5.0285434722900391e-01 2.8073854446411133e+00 4.6294798851013184e+00 2.0038871765136719e+00 1.3774850368499756e+00 4.5065665245056152e+00 3.3365337848663330e+00 -1.7919309139251709e+00 6.3343329429626465e+00 2.3290162086486816e+00 -2.5316390991210938e+00 4.7383198738098145e+00 -7.3814663887023926e+00 3.5711417198181152e+00 3.2528504729270935e-01 -2.4126024544239044e-01 -1.3396247625350952e+00 -1.5790205001831055e+00 -2.6858456134796143e+00 -3.7902483940124512e+00 6.1477632522583008e+00 -2.4446158409118652e+00 -8.1141567230224609e+00 5.7245688438415527e+00 -9.2772893905639648e+00 5.5015621185302734e+00 1.1796186447143555e+01 3.9995346069335938e+00 -1.7896753549575806e+00 3.6391654610633850e-01 -8.3416395187377930e+00 1.3847653567790985e-01 1.0634160041809082e+01 9.7026233673095703e+00 2.0540966987609863e+00 1.1354848861694336e+01 -1.0502996444702148e+01 9.0634384155273438e+00 9.5328073501586914e+00 1.0620021820068359e+01 1.1329142570495605e+01 5.2019399404525757e-01 -1.1356840133666992e+01 7.2387781143188477e+00 -1.0197730064392090e+01 -1.1030336380004883e+01 8.1525630950927734e+00 7.8318649530410767e-01 -9.6993274688720703e+00 -1.3461688041687012e+01 1.0216718673706055e+01 -6.9909844398498535e+00 -1.2348063468933105e+01 -7.0202388763427734e+00 -6.3286852836608887e+00 -1.1498641014099121e+01 -1.0573693275451660e+01 -6.9552516937255859e+00 -1.1512791633605957e+01 1.0902598381042480e+01 -1.1888557672500610e+00 -1.0134418010711670e+00 -1.3495244979858398e+00 7.3970179557800293e+00 -1.1304579734802246e+01 7.6582670211791992e+00 -9.8833837509155273e+00 7.9141979217529297e+00 9.1093034744262695e+00 -1.2471040487289429e+00 -1.0238805770874023e+01 1.1118374824523926e+01 5.2471108436584473e+00 -9.1662683486938477e+00 -1.0748652458190918e+01 -1.2762327194213867e+01 -1.2637888908386230e+01 -2.5089764595031738e+00 5.3226156234741211e+00 7.1374258995056152e+00 7.5532903671264648e+00 -8.6623191833496094e-01 -8.8521270751953125e+00 -7.0534050464630127e-01 -9.0838152170181274e-01 3.7389266490936279e+00 -1.2845796346664429e-01 8.1801147460937500e+00 7.5173811912536621e+00 -1.7908843755722046e+00 8.7538433074951172e+00 -7.7354903221130371e+00 -3.4728875160217285e+00 8.3101091384887695e+00 -5.3079980611801147e-01 6.8209677934646606e-01 6.4457237720489502e-01 3.9418849945068359e+00 -6.2611117362976074e+00 -7.8316507339477539e+00 7.6756100654602051e+00 -5.0833625793457031e+00 -1.2927330970764160e+01 4.4900375604629517e-01 -3.3374607563018799e+00 -7.0271329879760742e+00 -4.4717917442321777e+00 5.3889803886413574e+00 2.3063696920871735e-01 4.1844172477722168e+00 8.7130985260009766e+00 5.9171609878540039e+00 -2.5474133491516113e+00 7.9253993034362793e+00 -6.5538930892944336e+00 4.7628459930419922e+00 5.7166371345520020e+00 9.8730144500732422e+00 -7.7298035621643066e+00 8.8515758514404297e+00 1.4254684448242188e+00 -6.4613288640975952e-01 4.7171287536621094e+00 -1.7507061004638672e+01 -7.6262826919555664e+00 -9.2626762390136719e+00 -2.6852195262908936e+00 -4.1330647468566895e+00 -1.6048665046691895e+00 5.6295323371887207e+00 5.8171219825744629e+00 -8.0481729507446289e+00 -3.3241875171661377e+00 3.0482926368713379e+00 1.4004992246627808e+00 -2.2572669386863708e-01 -5.1567063331604004e+00 2.8150482177734375e+00 4.9548068046569824e+00 3.5176217555999756e+00 4.5931639671325684e+00 -8.2160848379135132e-01 -3.3018543720245361e+00 6.2424149513244629e+00 -3.7605788707733154e+00 -1.1522167921066284e+00 -9.2487287521362305e-01 -1.3449652194976807e+00 -6.5653405189514160e+00 -1.3643423318862915e+00 1.2441803216934204e+00 3.9893642067909241e-01 -5.1298823356628418e+00 -6.1421298980712891e-01 -1.2961674928665161e+00 -3.4952335357666016e+00 -3.1055314540863037e+00 1.5482298135757446e+00 -3.0431239604949951e+00 1.9250462055206299e+00 1.7729349136352539e+00 1.1626151800155640e+00 -4.1540265083312988e+00 9.8244374990463257e-01 -4.4672517776489258e+00 -6.6149044036865234e-01 3.4993081092834473e+00 -3.0947630405426025e+00 1.7823288440704346e+00 2.5333034992218018e+00 2.1703557968139648e+00 -1.7298562526702881e+00 3.6728992462158203e+00 -2.2175927162170410e+00 6.1824202537536621e-01 -1.1186679601669312e+00 2.3318109512329102e+00 -2.2832186222076416e+00 5.7459592819213867e+00 -2.9417376518249512e+00 -3.9603824615478516e+00 -3.7261459827423096e+00 -3.5081126689910889e+00 -1.4265562057495117e+01 -1.4453861236572266e+01 8.5179500579833984e+00 -1.0476268768310547e+01 -1.8693599700927734e+00 1.4543078422546387e+01 1.6342548370361328e+01 1.3746254920959473e+01 -7.5669460296630859e+00 -1.0958306312561035e+01 -4.3691349029541016e+00 -6.1897969245910645e+00 -1.3649309158325195e+01 7.2623443603515625e+00 1.1019950866699219e+01 -1.1265335083007812e+01 5.2848954200744629e+00 1.3466395378112793e+01 -4.3018105626106262e-01 6.0201802253723145e+00 -2.0025005340576172e+01 -8.8730983734130859e+00 -1.3712130546569824e+01 -1.0353142738342285e+01 3.0124368667602539e+00 -1.2333947420120239e+00 3.0124783515930176e+00 1.4787713050842285e+01 5.0623984336853027e+00 9.4988145828247070e+00 7.5778498649597168e+00 1.8733173608779907e+00 7.3772444725036621e+00 8.7746276855468750e+00 6.7405552864074707e+00 -1.2709496498107910e+01 1.1011193275451660e+01 -9.2344436645507812e+00 1.4794141769409180e+01 1.0590113639831543e+01 -1.4054206848144531e+01 1.7609468460083008e+01 6.2150959968566895e+00 -1.6402118682861328e+01 8.5018968582153320e+00 1.2794467926025391e+01 5.9480557441711426e+00 1.4490000724792480e+01 -2.0617006301879883e+01 3.0776548385620117e+01 -8.1847896575927734e+00 5.6538772583007812e+00 -1.1572669029235840e+01 6.5837244987487793e+00 -1.2057113647460938e+01 7.9062333106994629e+00 -1.3237954139709473e+01 1.8846044540405273e+01 2.0962228775024414e+01 4.9327535629272461e+00 2.6648355484008789e+01 2.1190160751342773e+01 9.7142000198364258e+00 -1.7513532638549805e+01 -1.0847229957580566e+01 2.4329557418823242e+01 2.8578653335571289e+00 -5.8658380508422852e+00 1.2190458297729492e+01 -2.6723602294921875e+01 1.1875286102294922e+01 8.6065673828125000e+00 1.3959665298461914e+01 5.6591215133666992e+00 -5.3878736495971680e+00 -1.7837072372436523e+01 -1.2362226486206055e+01 -8.7559728622436523e+00 -1.8011928558349609e+01 -8.6792516708374023e+00 -1.3313669204711914e+01 -1.1772628784179688e+01 -1.5059628486633301e+01 -9.9799022674560547e+00 -2.1769186019897461e+01 -9.5805940628051758e+00 -1.1483239173889160e+01 2.6255142688751221e+00 -1.1083424568176270e+01 2.7651618957519531e+01 -1.7522199153900146e+00 -2.3284320831298828e+01 1.0577218055725098e+01 -1.7506841659545898e+01 -1.7271852493286133e+01 -8.1200685501098633e+00 -2.3705142974853516e+01 -8.5791940689086914e+00 1.0893860816955566e+01 3.8781492710113525e+00 2.1702752113342285e+00 2.8815886974334717e+00 -8.2937898635864258e+00 3.0522875785827637e+00 -2.9807367324829102e+00 -6.5308961868286133e+00 -6.3082394599914551e+00 -3.3130674362182617e+00 5.0321555137634277e-01 -4.7752885818481445e+00 -1.0270631313323975e+00 -4.5943551063537598e+00 7.5850973129272461e+00 -8.5030174255371094e-01 2.6111500263214111e+00 -1.3781830072402954e+00 -3.8395729064941406e+00 -3.9737365245819092e+00 8.5097322463989258e+00 -7.2624957561492920e-01 3.8737313747406006e+00 -1.0308418273925781e+00 3.6792538166046143e+00 4.0970492362976074e+00 -5.2877793312072754e+00 1.8951374292373657e+00 -2.2391014099121094e+00 -5.2861723899841309e+00 1.5420926809310913e+00 -2.4305410385131836e+00 -3.2328493595123291e+00 -1.8675879240036011e+00 -2.8800852298736572e+00 -2.6154451370239258e+00 2.0247380733489990e+00 -2.7489259243011475e+00 -1.5102143287658691e+00 1.9356181621551514e+00 -3.4378771781921387e+00 4.5848131179809570e+00 1.0687381029129028e+00 -1.0406620502471924e+00 2.2670884132385254e+00 -6.9258866310119629e+00 -1.1873837471008301e+01 -6.3065242767333984e+00 8.4728527069091797e+00 -6.0573792457580566e+00 7.8681645393371582e+00 -7.0826120376586914e+00 -3.6772594451904297e+00 -1.0371562957763672e+01 -3.4921948909759521e+00 -5.7713537216186523e+00 7.2955393791198730e+00 9.8843021392822266e+00 -4.7212843894958496e+00 -4.6310058236122131e-01 1.1197108030319214e+00 -6.8902792930603027e+00 1.5823247432708740e+00 7.1327385902404785e+00 -7.5340304374694824e+00 -8.6497488021850586e+00 1.1129491329193115e+00 -9.2304964065551758e+00 2.3019576072692871e+00 2.5978255271911621e-01 1.8262284994125366e+00 -7.2860093116760254e+00 -6.3986277580261230e+00 -3.6834816932678223e+00 -9.1037139892578125e+00 -1.1304132461547852e+01 3.5131078958511353e-01 -8.8037306070327759e-01 -2.5023446083068848e+00 9.6346235275268555e+00 9.2905626296997070e+00 -3.3905973434448242e+00 2.8305091857910156e+00 5.5749101638793945e+00 -2.4104990959167480e+00 -6.3603031635284424e-01 -2.3265504837036133e-01 -7.6875023841857910e+00 9.9694786071777344e+00 5.5228204727172852e+00 9.5904040336608887e-01 -1.3505245447158813e+00 -8.2610273361206055e+00 1.4584174156188965e+00 -1.6160775423049927e+00 -5.5669121742248535e+00 -3.7308354377746582e+00 6.2483310699462891e+00 6.5593152046203613e+00 -2.3945052623748779e+00 -9.8026552200317383e+00 2.1512427330017090e+00 -4.5049095153808594e-01 3.0194370746612549e+00 2.4111825972795486e-02 2.6801488399505615e+00 4.3488492965698242e+00 -6.5320324897766113e+00 -7.8171734809875488e+00 -4.0721225738525391e+00 -4.9864668846130371e+00 2.9317595958709717e+00 -6.6801524162292480e+00 -2.9691507816314697e+00 6.1832556724548340e+00 -4.6772584915161133e+00 -1.4372339248657227e+00 1.2871432304382324e+01 7.0512437820434570e+00 -4.0967979431152344e+00 3.6510043144226074e+00 7.3825912475585938e+00 4.8644790649414062e+00 7.2529406547546387e+00 5.0337123870849609e+00 3.6305210590362549e+00 -4.4028334617614746e+00 -2.5723588466644287e+00 -7.7502107620239258e+00 -6.7331085205078125e+00 -7.7186095714569092e-01 -2.1254570484161377e+00 3.8483088016510010e+00 3.1182484626770020e+00 -1.0294110298156738e+01 4.1037120819091797e+00 -9.9178552627563477e-01 -7.5965005159378052e-01 -3.3459208011627197e+00 2.7163574695587158e+00 -3.8003365993499756e+00 -4.6430525779724121e+00 8.5570783615112305e+00 -8.2720279693603516e+00 9.2439165115356445e+00 6.9998674392700195e+00 1.2432317435741425e-01 -3.7327933311462402e+00 -4.8514728546142578e+00 7.5599131584167480e+00 7.6249618530273438e+00 6.1779570579528809e+00 -2.5931982994079590e+00 3.0848982334136963e+00 -8.5596866607666016e+00 1.7423822879791260e+00 -5.6157627105712891e+00 -1.6417862176895142e+00 -5.9603004455566406e+00 3.3377406597137451e+00 3.4713294506072998e+00 3.7036008834838867e+00 -6.2159013748168945e-01 2.3188161849975586e+00 4.1928448677062988e+00 -7.5207352638244629e-01 -4.4388275146484375e+00 -1.6169080734252930e+00 -5.1533336639404297e+00 -1.9605931043624878e+00 1.1005392074584961e+00 -7.7190119028091431e-01 3.5029180049896240e+00 4.8691506385803223e+00 9.1797351837158203e+00 2.9489548206329346e+00 1.6646531820297241e+00 -4.9014916419982910e+00 -8.5638256072998047e+00 -7.1212930679321289e+00 -2.4286127090454102e-01 -4.9851884841918945e+00 -4.4925637245178223e+00 -3.0001230239868164e+00 -6.2738871574401855e+00 -6.5162105560302734e+00 -7.3779163360595703e+00 -6.5936131477355957e+00 -4.2812886238098145e+00 5.7097277641296387e+00 -4.3173451423645020e+00 3.5195813179016113e+00 9.1882801055908203e+00 -2.7310440540313721e+00 1.2372496128082275e+00 1.0000965595245361e+00 -2.2729399204254150e+00 -7.3419947624206543e+00 2.4753463268280029e+00 -3.7870714664459229e+00 -9.8221367597579956e-01 -8.1179265975952148e+00 6.0730118751525879e+00 -9.2155857086181641e+00 3.9106388092041016e+00 -4.4596323966979980e+00 9.0487422943115234e+00 1.9996523857116699e+00 6.3994259834289551e+00 2.8303742408752441e+00 -2.1335201263427734e+00 -8.5016288757324219e+00 -3.4429874420166016e+00 1.3462026417255402e-01 -4.5886020660400391e+00 5.9602208137512207e+00 4.2400698661804199e+00 -5.7733302116394043e+00 3.0926125049591064e+00 5.3792695999145508e+00 -3.8191475868225098e+00 -4.3768277168273926e+00 -4.0789403915405273e+00 -6.5700225830078125e+00 -1.6808519363403320e+00 -8.8378582000732422e+00 1.4288319349288940e+00 